{"learner":{"attributes":{"scikit_learn":"{\"_estimator_type\": \"classifier\"}"},"feature_names":[],"feature_types":[],"gradient_booster":{"model":{"gbtree_model_param":{"num_parallel_tree":"1","num_trees":"300"},"iteration_indptr":[0,1,2,3,4,5,6,7,8,9,10,11,12,13,14,15,16,17,18,19,20,21,22,23,24,25,26,27,28,29,30,31,32,33,34,35,36,37,38,39,40,41,42,43,44,45,46,47,48,49,50,51,52,53,54,55,56,57,58,59,60,61,62,63,64,65,66,67,68,69,70,71,72,73,74,75,76,77,78,79,80,81,82,83,84,85,86,87,88,89,90,91,92,93,94,95,96,97,98,99,100,101,102,103,104,105,106,107,108,109,110,111,112,113,114,115,116,117,118,119,120,121,122,123,124,125,126,127,128,129,130,131,132,133,134,135,136,137,138,139,140,141,142,143,144,145,146,147,148,149,150,151,152,153,154,155,156,157,158,159,160,161,162,163,164,165,166,167,168,169,170,171,172,173,174,175,176,177,178,179,180,181,182,183,184,185,186,187,188,189,190,191,192,193,194,195,196,197,198,199,200,201,202,203,204,205,206,207,208,209,210,211,212,213,214,215,216,217,218,219,220,221,222,223,224,225,226,227,228,229,230,231,232,233,234,235,236,237,238,239,240,241,242,243,244,245,246,247,248,249,250,251,252,253,254,255,256,257,258,259,260,261,262,263,264,265,266,267,268,269,270,271,272,273,274,275,276,277,278,279,280,281,282,283,284,285,286,287,288,289,290,291,292,293,294,295,296,297,298,299,300],"tree_info":[0,0,0,0,0,0,0,0,0,0,0,0,0,0,0,0,0,0,0,0,0,0,0,0,0,0,0,0,0,0,0,0,0,0,0,0,0,0,0,0,0,0,0,0,0,0,0,0,0,0,0,0,0,0,0,0,0,0,0,0,0,0,0,0,0,0,0,0,0,0,0,0,0,0,0,0,0,0,0,0,0,0,0,0,0,0,0,0,0,0,0,0,0,0,0,0,0,0,0,0,0,0,0,0,0,0,0,0,0,0,0,0,0,0,0,0,0,0,0,0,0,0,0,0,0,0,0,0,0,0,0,0,0,0,0,0,0,0,0,0,0,0,0,0,0,0,0,0,0,0,0,0,0,0,0,0,0,0,0,0,0,0,0,0,0,0,0,0,0,0,0,0,0,0,0,0,0,0,0,0,0,0,0,0,0,0,0,0,0,0,0,0,0,0,0,0,0,0,0,0,0,0,0,0,0,0,0,0,0,0,0,0,0,0,0,0,0,0,0,0,0,0,0,0,0,0,0,0,0,0,0,0,0,0,0,0,0,0,0,0,0,0,0,0,0,0,0,0,0,0,0,0,0,0,0,0,0,0,0,0,0,0,0,0,0,0,0,0,0,0,0,0,0,0,0,0,0,0,0,0,0,0,0,0,0,0,0,0,0,0,0,0,0,0,0,0,0,0,0,0],"trees":[{"base_weights":[9.586445E-3,6.426444E-1,-1.87251E0,1.2834874E0,-1.846678E-1,-1.8896797E0,6.0000002E-2,-5.027933E-1,1.3706372E0,7.692308E-1,-7.376344E-1,-1.9230769E0,-7.058824E-1,-9.2307694E-2,4.5801528E-2,1.6744428E0,1.0195845E0,-8.2539684E-1,9.759666E-1,-1.1746944E0,5.539112E-1,5.555556E-2,-1.932079E0,-8.974359E-2,6.666667E-1,-6.666667E-1,1.1111112E0,1.7570655E0,1.1407408E0,6.181818E-1,1.5119363E0,8.4210527E-1,-1.4782609E0,6.226415E-1,1.6553847E0,4.2962962E-1,-1.3428571E0,7.875895E-1,-1.1724138E0,-1.941041E0,1.6666668E-2,1.3846154E0,-6.363636E-2,-8.974359E-2,1.7391305E-2,-5.555556E-2,7.1428575E-2,8.920276E-2,5.405405E-2,-3.9130434E-2,6.494024E-2,1.7167382E-3,5.9408035E-2,5.1666666E-2,8.610039E-2,-6.0000002E-2,6.875E-2,-9.493671E-2,4.117647E-2,7.64045E-2,1.3419913E-2,8.504673E-2,-5E-2,-8.3333336E-2,4.2608697E-2,-7.1078435E-2,6.0000002E-2,4.819277E-3,6.1089493E-2,-9.148937E-2,6.0000002E-2,-9.750231E-2,7.692308E-3,2.727273E-2,7.894737E-2],"categories":[],"categories_nodes":[],"categories_segments":[],"categories_sizes":[],"default_left":[0,0,0,0,0,0,0,0,0,0,0,0,0,0,0,0,0,0,0,0,0,0,0,0,0,0,0,0,0,0,0,0,0,0,0,0,0,0,0,0,0,0,0,0,0,0,0,0,0,0,0,0,0,0,0,0,0,0,0,0,0,0,0,0,0,0,0,0,0,0,0,0,0,0,0],"id":0,"left_children":[1,3,5,7,9,11,-1,13,15,17,19,21,23,-1,25,27,29,31,33,35,37,-1,39,-1,41,43,45,47,49,51,53,55,57,59,61,63,65,67,69,71,-1,73,-1,-1,-1,-1,-1,-1,-1,-1,-1,-1,-1,-1,-1,-1,-1,-1,-1,-1,-1,-1,-1,-1,-1,-1,-1,-1,-1,-1,-1,-1,-1,-1,-1],"loss_changes":[2.6733867E3,8.9040466E2,3.2060547E1,1.4799548E2,3.876015E2,2.086145E1,0E0,3.3063545E1,9.454602E1,8.973312E1,2.6313525E2,1.706018E1,2.6606335E1,0E0,2.5597963E1,1.9260864E1,8.2317566E1,3.553739E1,5.6402542E1,9.439548E1,4.862598E1,0E0,1.1707031E1,0E0,1.3249417E1,2.3801563E1,1.1111113E1,5.656494E0,2.1537292E1,7.774664E1,1.7172546E1,1.1988158E1,2.3824017E1,5.0588943E1,1.1528336E1,3.13153E1,6.4753784E1,3.1319916E1,2.4809395E1,1.0538818E1,0E0,1.9874859E-1,0E0,0E0,0E0,0E0,0E0,0E0,0E0,0E0,0E0,0E0,0E0,0E0,0E0,0E0,0E0,0E0,0E0,0E0,0E0,0E0,0E0,0E0,0E0,0E0,0E0,0E0,0E0,0E0,0E0,0E0,0E0,0E0,0E0],"parents":[2147483647,0,0,1,1,2,2,3,3,4,4,5,5,7,7,8,8,9,9,10,10,11,11,12,12,14,14,15,15,16,16,17,17,18,18,19,19,20,20,22,22,24,24,25,25,26,26,27,27,28,28,29,29,30,30,31,31,32,32,33,33,34,34,35,35,36,36,37,37,38,38,39,39,41,41],"right_children":[2,4,6,8,10,12,-1,14,16,18,20,22,24,-1,26,28,30,32,34,36,38,-1,40,-1,42,44,46,48,50,52,54,56,58,60,62,64,66,68,70,72,-1,74,-1,-1,-1,-1,-1,-1,-1,-1,-1,-1,-1,-1,-1,-1,-1,-1,-1,-1,-1,-1,-1,-1,-1,-1,-1,-1,-1,-1,-1,-1,-1,-1,-1],"split_conditions":[1E0,1E0,1E0,2E0,4E0,2E0,6.0000002E-2,1E0,4E0,2E0,2E0,1E0,1E0,-9.2307694E-2,1E0,5E0,2E0,1E0,2E0,4E0,1E0,5.555556E-2,2E0,-8.974359E-2,5E0,1E0,1E0,1E0,2E0,2E0,1E0,5E0,1E0,1E0,1E0,1E0,1E0,1E0,3E0,1E0,1.6666668E-2,1E0,-6.363636E-2,-8.974359E-2,1.7391305E-2,-5.555556E-2,7.1428575E-2,8.920276E-2,5.405405E-2,-3.9130434E-2,6.494024E-2,1.7167382E-3,5.9408035E-2,5.1666666E-2,8.610039E-2,-6.0000002E-2,6.875E-2,-9.493671E-2,4.117647E-2,7.64045E-2,1.3419913E-2,8.504673E-2,-5E-2,-8.3333336E-2,4.2608697E-2,-7.1078435E-2,6.0000002E-2,4.819277E-3,6.1089493E-2,-9.148937E-2,6.0000002E-2,-9.750231E-2,7.692308E-3,2.727273E-2,7.894737E-2],"split_indices":[604,717,223,112,545,812,0,737,545,112,649,434,62,0,167,128,649,405,649,434,5,0,586,0,88,808,186,440,29,813,544,421,410,417,744,719,687,264,201,50,0,101,0,0,0,0,0,0,0,0,0,0,0,0,0,0,0,0,0,0,0,0,0,0,0,0,0,0,0,0,0,0,0,0,0],"split_type":[0,0,0,0,0,0,0,0,0,0,0,0,0,0,0,0,0,0,0,0,0,0,0,0,0,0,0,0,0,0,0,0,0,0,0,0,0,0,0,0,0,0,0,0,0,0,0,0,0,0,0,0,0,0,0,0,0,0,0,0,0,0,0,0,0,0,0,0,0,0,0,0,0,0,0],"sum_hessian":[2.24175E3,1.678E3,5.6375E2,9.4525E2,7.3275E2,5.61E2,2.75E0,4.375E1,9.015E2,2.6875E2,4.64E2,5.45E2,1.6E1,1.2E1,3.175E1,4.8125E2,4.2025E2,3.05E1,2.3825E2,3.4675E2,1.1725E2,1.25E0,5.4375E2,8.75E0,7.25E0,1.925E1,1.25E1,4.1475E2,6.65E1,2.3275E2,1.875E2,8.5E0,2.2E1,1.58E2,8.025E1,3.275E1,3.14E2,1.0375E2,1.35E1,5.4175E2,2E0,5.5E0,1.75E0,8.75E0,1.05E1,1.25E0,1.125E1,3.9725E2,1.75E1,4.75E0,6.175E1,1.155E2,1.1725E2,5.9E1,1.285E2,1.5E0,7E0,1.875E1,3.25E0,4.35E1,1.145E2,7.925E1,1E0,5E0,2.775E1,3.05E2,9E0,4.05E1,6.325E1,1.075E1,2.75E0,5.395E2,2.25E0,1.75E0,3.75E0],"tree_param":{"num_deleted":"0","num_feature":"954","num_nodes":"75","size_leaf_vector":"1"}},{"base_weights":[6.1481004E-3,-1.6738074E0,6.464694E-1,-8.8715947E-1,-1.8282814E0,1.2781825E0,-1.5681636E-1,4.7486028E-1,-1.1403126E0,5.40359E-2,-1.8374034E0,9.9404454E-1,1.6126186E0,7.840804E-1,-6.68916E-1,9.9568653E-1,-7.335214E-2,-1.4543098E0,-2.9095975E-1,-1.846454E0,3.822116E-2,1.3786608E0,5.748343E-1,1.2617668E0,1.7719266E0,3.773213E-1,1.5169502E0,-1.013268E0,4.5754972E-1,1.3454444E0,-5.760893E-2,7.188477E-2,-1.6505471E0,-8.644139E-2,5.203333E-1,-1.8649055E0,-3.456172E-1,1.7172146E0,1.1354657E0,1.0997887E0,-3.53219E-2,1.5826385E0,6.8680716E-1,1.7915694E0,-1.7790003E-1,6.4205486E-1,-8.9538515E-1,1.5765306E0,-6.0187247E-2,1.3176545E0,-1.1282431E0,6.859237E-1,-1.3762822E0,7.9931885E-2,6.6216225E-3,-7.432017E-2,7.658666E-2,-8.6524546E-2,3.8787883E-2,5.2546807E-2,-7.174166E-2,-9.3710385E-2,1.6410418E-2,6.0722537E-2,-7.5242594E-2,8.7935686E-2,2.311191E-2,3.4558777E-2,7.515812E-2,1.59325E-2,6.8872765E-2,-2.413252E-2,5.9809666E-2,8.172687E-2,-5.291906E-2,5.6595244E-2,-6.588258E-2,9.124839E-2,5.3742375E-2,-6.2086876E-2,5.4140754E-2,3.9835673E-2,-8.9214325E-2,-7.141781E-2,2.4305819E-2,8.131157E-2,-5.291906E-2,8.4591076E-2,1.0518449E-2,7.3542767E-3,-6.449304E-2,6.0551245E-2,-2.2818241E-3,-8.7266006E-2,5.391633E-2],"categories":[],"categories_nodes":[],"categories_segments":[],"categories_sizes":[],"default_left":[0,0,0,0,0,0,0,0,0,0,0,0,0,0,0,0,0,0,0,0,0,0,0,0,0,0,0,0,0,0,0,0,0,0,0,0,0,0,0,0,0,0,0,0,0,0,0,0,0,0,0,0,0,0,0,0,0,0,0,0,0,0,0,0,0,0,0,0,0,0,0,0,0,0,0,0,0,0,0,0,0,0,0,0,0,0,0,0,0,0,0,0,0,0,0],"id":1,"left_children":[1,3,5,7,9,11,13,15,17,-1,19,21,23,25,27,29,-1,31,33,35,-1,37,39,41,43,45,47,49,51,53,-1,55,57,-1,59,61,63,65,67,69,71,73,75,77,79,81,83,85,-1,87,89,91,93,-1,-1,-1,-1,-1,-1,-1,-1,-1,-1,-1,-1,-1,-1,-1,-1,-1,-1,-1,-1,-1,-1,-1,-1,-1,-1,-1,-1,-1,-1,-1,-1,-1,-1,-1,-1,-1,-1,-1,-1,-1,-1],"loss_changes":[2.4202117E3,7.382666E1,8.2681616E2,3.635058E1,1.57323E1,8.505847E1,3.4647787E2,1.8637844E1,2.3011604E1,0E0,1.3580811E1,7.912747E1,2.108899E1,7.5000244E1,1.8102417E2,1.2058107E1,0E0,1.9257645E1,3.0024637E1,1.3625244E1,0E0,1.9275055E1,7.6555E1,2.3594818E1,1.1215698E1,5.59523E1,1.6511627E1,9.7111755E1,4.6873234E1,3.6243343E0,0E0,2.1019083E1,1.2333679E1,0E0,1.8863869E1,1.0994995E1,1.5365155E1,4.697876E0,2.3951447E1,2.7419083E1,6.1972267E1,1.339415E1,4.582055E1,4.783386E0,6.370498E0,5.2696644E1,2.1840088E1,1.3331055E1,0E0,6.784342E0,7.0388306E1,3.7774704E1,1.318479E1,0E0,0E0,0E0,0E0,0E0,0E0,0E0,0E0,0E0,0E0,0E0,0E0,0E0,0E0,0E0,0E0,0E0,0E0,0E0,0E0,0E0,0E0,0E0,0E0,0E0,0E0,0E0,0E0,0E0,0E0,0E0,0E0,0E0,0E0,0E0,0E0,0E0,0E0,0E0,0E0,0E0,0E0],"parents":[2147483647,0,0,1,1,2,2,3,3,4,4,5,5,6,6,7,7,8,8,10,10,11,11,12,12,13,13,14,14,15,15,17,17,18,18,19,19,21,21,22,22,23,23,24,24,25,25,26,26,27,27,28,28,29,29,31,31,32,32,34,34,35,35,36,36,37,37,38,38,39,39,40,40,41,41,42,42,43,43,44,44,45,45,46,46,47,47,49,49,50,50,51,51,52,52],"right_children":[2,4,6,8,10,12,14,16,18,-1,20,22,24,26,28,30,-1,32,34,36,-1,38,40,42,44,46,48,50,52,54,-1,56,58,-1,60,62,64,66,68,70,72,74,76,78,80,82,84,86,-1,88,90,92,94,-1,-1,-1,-1,-1,-1,-1,-1,-1,-1,-1,-1,-1,-1,-1,-1,-1,-1,-1,-1,-1,-1,-1,-1,-1,-1,-1,-1,-1,-1,-1,-1,-1,-1,-1,-1,-1,-1,-1,-1,-1,-1],"split_conditions":[2E0,1E0,1E0,1E0,1E0,2E0,4E0,1E0,1E0,5.40359E-2,1E0,4E0,2E0,1E0,2E0,1E0,-7.335214E-2,3E0,4E0,1E0,3.822116E-2,4E0,1E0,4E0,1E0,1E0,2E0,1E0,1E0,1E0,-5.760893E-2,1E0,1E0,-8.644139E-2,1E0,1E0,4E0,1E0,1E0,1E0,1E0,1E0,1E0,1E0,1E0,1E0,1E0,1E0,-6.0187247E-2,1E0,1E0,1E0,1E0,7.9931885E-2,6.6216225E-3,-7.432017E-2,7.658666E-2,-8.6524546E-2,3.8787883E-2,5.2546807E-2,-7.174166E-2,-9.3710385E-2,1.6410418E-2,6.0722537E-2,-7.5242594E-2,8.7935686E-2,2.311191E-2,3.4558777E-2,7.515812E-2,1.59325E-2,6.8872765E-2,-2.413252E-2,5.9809666E-2,8.172687E-2,-5.291906E-2,5.6595244E-2,-6.588258E-2,9.124839E-2,5.3742375E-2,-6.2086876E-2,5.4140754E-2,3.9835673E-2,-8.9214325E-2,-7.141781E-2,2.4305819E-2,8.131157E-2,-5.291906E-2,8.4591076E-2,1.0518449E-2,7.3542767E-3,-6.449304E-2,6.0551245E-2,-2.2818241E-3,-8.7266006E-2,5.391633E-2],"split_indices":[112,604,717,153,434,649,545,187,286,0,223,545,99,522,649,54,0,434,866,342,0,447,417,545,44,709,849,504,5,165,0,43,616,0,951,50,447,14,28,546,400,604,92,47,2,468,70,604,0,400,595,266,240,0,0,0,0,0,0,0,0,0,0,0,0,0,0,0,0,0,0,0,0,0,0,0,0,0,0,0,0,0,0,0,0,0,0,0,0,0,0,0,0,0,0],"split_type":[0,0,0,0,0,0,0,0,0,0,0,0,0,0,0,0,0,0,0,0,0,0,0,0,0,0,0,0,0,0,0,0,0,0,0,0,0,0,0,0,0,0,0,0,0,0,0,0,0,0,0,0,0,0,0,0,0,0,0,0,0,0,0,0,0,0,0,0,0,0,0,0,0,0,0,0,0,0,0,0,0,0,0,0,0,0,0,0,0,0,0,0,0,0,0],"sum_hessian":[2.2478647E3,6.198925E2,1.6279723E3,1.02854805E2,5.170377E2,9.109778E2,7.169945E2,1.5983618E1,8.687119E1,1.249036E0,5.157887E2,4.9467377E2,4.1630405E2,2.5251312E2,4.6448138E2,1.2987563E1,2.9960542E0,6.290397E1,2.3967222E1,5.1429004E2,1.4986509E0,2.5678784E2,2.3788593E2,1.3278517E2,2.8351886E2,1.6335971E2,8.915342E1,3.5581268E2,1.08668724E2,1.1490107E1,1.4974566E0,7.2388687E0,5.56651E1,8.237252E0,1.572997E1,5.0780444E2,6.4855967E0,1.0481413E2,1.5197371E2,1.2743951E2,1.1044642E2,8.40989E1,4.868627E1,2.807715E2,2.7473464E0,1.3564081E2,2.7718904E1,8.765442E1,1.4989972E0,1.6234085E1,3.3957858E2,9.719112E1,1.14776125E1,9.242915E0,2.2471914E0,3.4925842E0,3.7462845E0,5.4167137E1,1.4979616E0,1.2736074E1,2.9938962E0,5.0580447E2,1.9999704E0,2.744495E0,3.7411015E0,1.01070564E2,3.7435641E0,7.012316E1,8.185055E1,3.3983585E1,9.3455925E1,8.146399E1,2.8982426E1,8.285187E1,1.2470338E0,4.019592E1,8.490352E0,2.6679297E2,1.3978541E1,1.4981803E0,1.2491661E0,1.2814433E2,7.496468E0,1.9977749E1,7.741154E0,8.640739E1,1.2470338E0,1.1739311E1,4.4947743E0,3.820355E1,3.0137503E2,5.619786E1,4.099325E1,1.0228737E1,1.2488757E0],"tree_param":{"num_deleted":"0","num_feature":"954","num_nodes":"95","size_leaf_vector":"1"}},{"base_weights":[1.0572554E-3,-1.471118E0,5.9009546E-1,1.1439118E0,-1.5568722E0,1.1853497E0,-1.5580586E-1,1.6224118E0,-6.065776E-1,-1.7169901E0,-6.4588976E-1,1.470896E0,8.5302067E-1,7.5333893E-1,-6.340885E-1,8.911773E-2,1.4723423E-2,5.0868403E-2,-6.847128E-2,-1.7512168E0,1.0879847E0,-7.861958E-1,7.31196E-2,1.581386E0,9.7788185E-1,2.0967376E-1,1.2790061E0,4.133734E-1,1.4499078E0,-1.0762428E0,3.8015804E-1,-1.768361E0,-4.7079444E-2,7.506766E-2,7.265638E-3,-3.2614008E-1,-1.3536522E0,1.0388649E0,1.6360948E0,1.3657383E0,2.4450913E-1,5.4269916E-1,-1.1010923E0,1.4545916E0,6.4286494E-1,1.3827493E0,2.5366334E-2,1.7772903E-1,1.6027492E0,-1.2314085E0,7.419547E-1,-9.335351E-2,1.361763E0,-8.8855565E-2,3.710934E-2,-6.506665E-2,5.662312E-2,1.5982196E-2,-7.4816555E-2,-7.806878E-2,1.10966405E-2,-6.644877E-2,5.941495E-2,8.3857335E-2,5.8761217E-2,7.3575735E-2,-6.6354446E-2,3.2512795E-2,-8.764293E-2,6.4717936E-3,6.589246E-2,1.0919747E-3,-8.569232E-2,7.7122085E-2,1.0571851E-2,4.49514E-2,-5.6178626E-2,7.470768E-2,-6.141339E-2,-2.4667036E-2,4.5435954E-2,5.32232E-2,-7.621922E-2,8.464604E-2,3.358817E-2,-4.3397296E-2,-8.930298E-2,-7.803523E-2,6.448607E-2,1.5990712E-2,-5.1557045E-2,7.348922E-2,-5.6440838E-2],"categories":[],"categories_nodes":[],"categories_segments":[],"categories_sizes":[],"default_left":[0,0,0,0,0,0,0,0,0,0,0,0,0,0,0,0,0,0,0,0,0,0,0,0,0,0,0,0,0,0,0,0,0,0,0,0,0,0,0,0,0,0,0,0,0,0,0,0,0,0,0,0,0,0,0,0,0,0,0,0,0,0,0,0,0,0,0,0,0,0,0,0,0,0,0,0,0,0,0,0,0,0,0,0,0,0,0,0,0,0,0,0,0],"id":2,"left_children":[1,3,5,7,9,11,13,15,17,19,21,23,25,27,29,-1,-1,-1,-1,31,33,35,-1,37,39,41,43,45,47,49,51,53,55,-1,-1,57,59,61,63,65,67,69,71,73,75,77,79,81,83,85,87,89,91,-1,-1,-1,-1,-1,-1,-1,-1,-1,-1,-1,-1,-1,-1,-1,-1,-1,-1,-1,-1,-1,-1,-1,-1,-1,-1,-1,-1,-1,-1,-1,-1,-1,-1,-1,-1,-1,-1,-1,-1],"loss_changes":[1.9421278E3,1.4530603E2,7.1040796E2,1.8488655E1,8.934534E1,8.317871E1,3.09573E2,3.018776E0,7.852581E0,5.2482544E1,2.9045567E1,2.4447144E1,1.1307431E2,5.7538254E1,2.0954128E2,0E0,0E0,0E0,0E0,1.5134033E1,2.4969177E0,2.2811497E1,0E0,9.822327E0,2.5261086E1,7.303761E1,2.683545E1,6.2545143E1,1.52942505E1,9.260989E1,6.627633E1,1.2646606E1,1.0668618E1,0E0,0E0,3.8646652E1,1.3294907E1,1.5131176E1,4.6677246E0,1.8655098E1,2.735303E1,4.243438E1,2.339838E1,2.0866516E1,2.6156273E1,1.5663994E1,5.5359238E1,1.6290693E1,4.85701E0,5.8896637E1,3.5035034E1,3.789102E1,1.4135864E1,0E0,0E0,0E0,0E0,0E0,0E0,0E0,0E0,0E0,0E0,0E0,0E0,0E0,0E0,0E0,0E0,0E0,0E0,0E0,0E0,0E0,0E0,0E0,0E0,0E0,0E0,0E0,0E0,0E0,0E0,0E0,0E0,0E0,0E0,0E0,0E0,0E0,0E0,0E0,0E0],"parents":[2147483647,0,0,1,1,2,2,3,3,4,4,5,5,6,6,7,7,8,8,9,9,10,10,11,11,12,12,13,13,14,14,19,19,20,20,21,21,23,23,24,24,25,25,26,26,27,27,28,28,29,29,30,30,31,31,32,32,35,35,36,36,37,37,38,38,39,39,40,40,41,41,42,42,43,43,44,44,45,45,46,46,47,47,48,48,49,49,50,50,51,51,52,52],"right_children":[2,4,6,8,10,12,14,16,18,20,22,24,26,28,30,-1,-1,-1,-1,32,34,36,-1,38,40,42,44,46,48,50,52,54,56,-1,-1,58,60,62,64,66,68,70,72,74,76,78,80,82,84,86,88,90,92,-1,-1,-1,-1,-1,-1,-1,-1,-1,-1,-1,-1,-1,-1,-1,-1,-1,-1,-1,-1,-1,-1,-1,-1,-1,-1,-1,-1,-1,-1,-1,-1,-1,-1,-1,-1,-1,-1,-1,-1],"split_conditions":[2E0,1E0,1E0,1E0,1E0,4E0,4E0,1E0,2E0,1E0,5E0,1E0,2E0,2E0,5E0,8.911773E-2,1.4723423E-2,5.0868403E-2,-6.847128E-2,1E0,2E0,4E0,7.31196E-2,1E0,1E0,2E0,1E0,1E0,1E0,1E0,1E0,1E0,1E0,7.506766E-2,7.265638E-3,1E0,3E0,1E0,1E0,1E0,1E0,1E0,5E0,1E0,1E0,1E0,3E0,3E0,1E0,1E0,2E0,1E0,1E0,-8.8855565E-2,3.710934E-2,-6.506665E-2,5.662312E-2,1.5982196E-2,-7.4816555E-2,-7.806878E-2,1.10966405E-2,-6.644877E-2,5.941495E-2,8.3857335E-2,5.8761217E-2,7.3575735E-2,-6.6354446E-2,3.2512795E-2,-8.764293E-2,6.4717936E-3,6.589246E-2,1.0919747E-3,-8.569232E-2,7.7122085E-2,1.0571851E-2,4.49514E-2,-5.6178626E-2,7.470768E-2,-6.141339E-2,-2.4667036E-2,4.5435954E-2,5.32232E-2,-7.621922E-2,8.464604E-2,3.358817E-2,-4.3397296E-2,-8.930298E-2,-7.803523E-2,6.448607E-2,1.5990712E-2,-5.1557045E-2,7.348922E-2,-5.6440838E-2],"split_indices":[171,170,717,709,603,545,545,899,16,198,592,706,99,649,866,0,0,0,0,148,99,545,0,649,97,337,97,417,728,189,522,223,244,0,0,164,76,124,399,436,518,145,262,47,283,912,592,214,243,685,624,318,5,0,0,0,0,0,0,0,0,0,0,0,0,0,0,0,0,0,0,0,0,0,0,0,0,0,0,0,0,0,0,0,0,0,0,0,0,0,0,0,0],"split_type":[0,0,0,0,0,0,0,0,0,0,0,0,0,0,0,0,0,0,0,0,0,0,0,0,0,0,0,0,0,0,0,0,0,0,0,0,0,0,0,0,0,0,0,0,0,0,0,0,0,0,0,0,0,0,0,0,0,0,0,0,0,0,0,0,0,0,0,0,0,0,0,0,0,0,0,0,0,0,0,0,0,0,0,0,0,0,0,0,0,0,0,0,0],"sum_hessian":[2.2376216E3,6.390228E2,1.5985986E3,1.9898216E1,6.1912463E2,8.8875397E2,7.098446E2,1.56841E1,4.214116E0,5.258197E2,9.33049E1,4.7618054E2,4.1257346E2,2.4450383E2,4.653408E2,1.3692705E1,1.991395E0,1.2402455E0,2.9738708E0,5.198521E2,5.9676313E0,8.807088E1,5.2340236E0,3.8719766E2,8.8982864E1,1.649496E2,2.4762386E2,1.6538158E2,7.912226E1,3.2402365E2,1.4131715E2,5.1463696E2,5.2151084E0,3.736494E0,2.2311373E0,4.950791E1,3.856297E1,3.730007E1,3.4989758E2,5.7637856E1,3.134501E1,1.3199875E2,3.295086E1,1.9305179E2,5.4572075E1,4.6541378E1,1.18840195E2,8.718289E0,7.040397E1,2.98843E2,2.5180635E1,9.5941376E1,4.5375786E1,5.131406E2,1.4963881E0,2.4774668E0,2.7376416E0,3.2370632E1,1.7137278E1,3.407905E1,4.4839215E0,1.7456831E0,3.5554386E1,3.1885648E2,3.104112E1,5.5895767E1,1.7420881E0,2.6613224E1,4.731787E0,8.685818E1,4.5140564E1,1.1973185E1,2.0977673E1,1.8008496E2,1.2966817E1,4.808936E1,6.482715E0,4.5047104E1,1.4942743E0,7.515216E1,4.3688034E1,5.9783983E0,2.739891E0,6.3440926E1,6.963043E0,1.820866E2,1.1675641E2,4.483602E0,2.0697033E1,6.7056694E1,2.888468E1,4.388238E1,1.4934027E0],"tree_param":{"num_deleted":"0","num_feature":"954","num_nodes":"93","size_leaf_vector":"1"}},{"base_weights":[1.7877062E-3,5.4872274E-1,-1.6375346E0,1.0982945E0,-1.428313E-1,-1.6905432E0,-6.263865E-1,1.1517051E0,-8.960035E-1,-5.191483E-1,8.3787537E-1,-1.706915E0,2.7707312E-1,-1.2771602E0,1.3681602E0,8.7397087E-1,1.4764167E0,-1.5565778E0,9.368757E-1,3.4633243E-1,-9.6529937E-1,9.96179E-1,-8.026778E-1,5.1144432E-2,-1.7153497E0,6.652218E-2,-5.8306098E-2,-8.3267614E-2,4.3930966E-1,2.2418728E-2,7.798664E-2,1.264264E0,5.053633E-1,1.5235131E0,7.2602105E-1,-8.9855246E-2,1.507096E-2,7.3651426E-2,-6.2207263E-2,-9.7257155E-1,5.4455495E-1,1.2741268E0,-1.0643425E0,-3.994702E-1,1.1035913E0,-1.4406817E0,8.8606673E-1,-1.7240543E0,1.8962925E-2,-5.232532E-2,6.82354E-2,7.575074E-2,4.6994172E-2,4.730875E-2,-3.8859752E-4,7.8118026E-2,4.2455852E-2,4.9031593E-2,-7.036849E-2,-5.3266782E-2,4.8803076E-2,3.981669E-2,-7.34806E-2,6.7108616E-2,1.1206443E-2,1.3859737E-2,8.132995E-2,1.4628224E-2,-6.012882E-2,-5.7769097E-2,4.590876E-2,6.892448E-2,2.9156813E-2,-8.862876E-2,5.348761E-2,6.9913566E-2,2.8974856E-3,-8.663498E-2,-8.035651E-3],"categories":[],"categories_nodes":[],"categories_segments":[],"categories_sizes":[],"default_left":[0,0,0,0,0,0,0,0,0,0,0,0,0,0,0,0,0,0,0,0,0,0,0,0,0,0,0,0,0,0,0,0,0,0,0,0,0,0,0,0,0,0,0,0,0,0,0,0,0,0,0,0,0,0,0,0,0,0,0,0,0,0,0,0,0,0,0,0,0,0,0,0,0,0,0,0,0,0,0],"id":3,"left_children":[1,3,5,7,9,11,13,15,17,19,21,23,25,27,29,31,33,35,37,39,41,43,45,-1,47,-1,-1,-1,49,-1,-1,51,53,55,57,-1,-1,-1,59,61,63,65,67,69,71,73,75,77,-1,-1,-1,-1,-1,-1,-1,-1,-1,-1,-1,-1,-1,-1,-1,-1,-1,-1,-1,-1,-1,-1,-1,-1,-1,-1,-1,-1,-1,-1,-1],"loss_changes":[1.9956661E3,6.344657E2,2.8786743E1,1.0009973E2,2.7350342E2,1.7498047E1,3.9812252E1,8.043811E1,3.1511072E1,2.0704875E2,5.4186523E1,1.3826294E1,9.489357E0,1.5809494E1,6.5695286E-1,6.998541E1,1.3607666E1,8.863586E0,3.948432E0,4.8328686E1,7.976456E1,2.8612411E1,2.1364258E1,0E0,1.0190186E1,0E0,0E0,0E0,8.254878E0,0E0,0E0,1.791623E1,5.7491264E1,8.912842E0,1.5773123E1,0E0,0E0,0E0,4.658035E0,2.2488857E1,4.0485558E1,4.9702473E0,6.3953644E1,1.5168175E1,2.4199356E1,1.3488226E1,2.350071E0,6.764038E0,0E0,0E0,0E0,0E0,0E0,0E0,0E0,0E0,0E0,0E0,0E0,0E0,0E0,0E0,0E0,0E0,0E0,0E0,0E0,0E0,0E0,0E0,0E0,0E0,0E0,0E0,0E0,0E0,0E0,0E0,0E0],"parents":[2147483647,0,0,1,1,2,2,3,3,4,4,5,5,6,6,7,7,8,8,9,9,10,10,11,11,12,12,13,13,14,14,15,15,16,16,17,17,18,18,19,19,20,20,21,21,22,22,24,24,28,28,31,31,32,32,33,33,34,34,38,38,39,39,40,40,41,41,42,42,43,43,44,44,45,45,46,46,47,47],"right_children":[2,4,6,8,10,12,14,16,18,20,22,24,26,28,30,32,34,36,38,40,42,44,46,-1,48,-1,-1,-1,50,-1,-1,52,54,56,58,-1,-1,-1,60,62,64,66,68,70,72,74,76,78,-1,-1,-1,-1,-1,-1,-1,-1,-1,-1,-1,-1,-1,-1,-1,-1,-1,-1,-1,-1,-1,-1,-1,-1,-1,-1,-1,-1,-1,-1,-1],"split_conditions":[1E0,1E0,1E0,1E0,2E0,1E0,2E0,2E0,1E0,4E0,1E0,1E0,1E0,4E0,5E0,1E0,1E0,3E0,1E0,2E0,1E0,2E0,2E0,5.1144432E-2,1E0,6.652218E-2,-5.8306098E-2,-8.3267614E-2,1E0,2.2418728E-2,7.798664E-2,1E0,4E0,1E0,1E0,-8.9855246E-2,1.507096E-2,7.3651426E-2,1E0,1E0,1E0,1E0,4E0,1E0,1E0,1E0,1E0,1E0,1.8962925E-2,-5.232532E-2,6.82354E-2,7.575074E-2,4.6994172E-2,4.730875E-2,-3.8859752E-4,7.8118026E-2,4.2455852E-2,4.9031593E-2,-7.036849E-2,-5.3266782E-2,4.8803076E-2,3.981669E-2,-7.34806E-2,6.7108616E-2,1.1206443E-2,1.3859737E-2,8.132995E-2,1.4628224E-2,-6.012882E-2,-5.7769097E-2,4.590876E-2,6.892448E-2,2.9156813E-2,-8.862876E-2,5.348761E-2,6.9913566E-2,2.8974856E-3,-8.663498E-2,-8.035651E-3],"split_indices":[604,717,718,44,649,198,112,649,46,545,589,434,76,359,262,417,399,593,405,112,504,171,34,0,303,0,0,0,62,0,0,287,545,635,278,0,0,0,26,817,417,917,434,4,495,491,131,240,0,0,0,0,0,0,0,0,0,0,0,0,0,0,0,0,0,0,0,0,0,0,0,0,0,0,0,0,0,0,0],"split_type":[0,0,0,0,0,0,0,0,0,0,0,0,0,0,0,0,0,0,0,0,0,0,0,0,0,0,0,0,0,0,0,0,0,0,0,0,0,0,0,0,0,0,0,0,0,0,0,0,0,0,0,0,0,0,0,0,0,0,0,0,0,0,0,0,0,0,0,0,0,0,0,0,0,0,0,0,0,0,0],"sum_hessian":[2.2238064E3,1.6679766E3,5.558298E2,9.2906714E2,7.389094E2,5.2750397E2,2.8325836E1,9.052456E2,2.3821537E1,5.3434216E2,2.0456725E2,5.232824E2,4.221548E0,2.1628605E1,6.697231E0,4.8990686E2,4.1533875E2,1.7621464E1,6.2000737E0,1.818324E2,3.5250977E2,1.8692307E2,1.7644182E1,1.2414061E0,5.22041E2,2.485522E0,1.736026E0,1.766363E1,3.9649758E0,1.7302725E0,4.966958E0,2.3677368E2,2.5313318E2,3.8984125E2,2.5497482E1,1.5630756E1,1.9907072E0,3.7261004E0,2.4739735E0,2.324719E1,1.585852E2,1.4427649E1,3.3808212E2,1.3163652E1,1.737594E2,1.2912688E1,4.731493E0,5.200567E2,1.9843013E0,1.4714882E0,2.4934876E0,1.3147284E2,1.0530085E2,1.357083E2,1.1742488E2,3.6736322E2,2.2478033E1,2.3261648E1,2.2358334E0,1.2450212E0,1.2289523E0,4.967242E0,1.827995E1,4.453592E1,1.14049286E2,4.2352114E0,1.0192437E1,3.1154293E1,3.0692783E2,8.443119E0,4.7205334E0,1.1262406E2,6.113535E1,1.1664494E1,1.2481954E0,2.4979644E0,2.2335286E0,5.1708887E2,2.9678168E0],"tree_param":{"num_deleted":"0","num_feature":"954","num_nodes":"79","size_leaf_vector":"1"}},{"base_weights":[-7.568257E-3,5.146982E-1,-1.5917369E0,1.0513825E0,-1.6276027E-1,-1.6066794E0,2.6610148E-1,1.105072E0,-8.829153E-1,-4.907835E-1,7.532498E-1,-1.6437129E0,-7.9029405E-1,6.4427964E-2,-5.6676544E-2,8.3632576E-1,1.4161739E0,-1.4933971E0,8.013812E-1,-7.174421E-1,2.977014E-1,9.0406126E-1,-8.8171124E-1,4.9866118E-2,-1.6520008E0,-1.390946E0,1.2000086E0,9.9202496E-1,-1.310057E-1,1.5145268E0,1.0467232E0,-8.627439E-2,2.559726E-2,-5.3392835E-2,6.750974E-2,4.323321E-1,-8.835235E-1,-3.3616987E-1,9.813937E-1,-5.6086767E-1,1.059669E0,-8.306569E-2,9.200757E-1,-1.6604909E0,1.0199093E-2,-8.0407865E-2,3.887412E-2,6.9509655E-2,2.1652397E-2,6.279082E-2,2.8920576E-2,-5.5060398E-2,2.6467314E-2,1.3008137E-3,7.623262E-2,-6.0730603E-2,5.524687E-2,4.6468336E-2,-5.4219373E-2,-5.502038E-2,-5.060963E-3,-4.447351E-2,3.203009E-2,-6.559049E-2,5.6329098E-2,2.2111101E-2,-8.817097E-2,3.942239E-2,7.572245E-2,5.343209E-3,7.0243545E-2,-8.344826E-2,-7.7380645E-3],"categories":[],"categories_nodes":[],"categories_segments":[],"categories_sizes":[],"default_left":[0,0,0,0,0,0,0,0,0,0,0,0,0,0,0,0,0,0,0,0,0,0,0,0,0,0,0,0,0,0,0,0,0,0,0,0,0,0,0,0,0,0,0,0,0,0,0,0,0,0,0,0,0,0,0,0,0,0,0,0,0,0,0,0,0,0,0,0,0,0,0,0,0],"id":4,"left_children":[1,3,5,7,9,11,13,15,17,19,21,23,25,-1,-1,27,29,31,33,35,37,39,41,-1,43,45,47,49,51,53,55,-1,-1,-1,-1,57,59,61,63,65,67,-1,69,71,-1,-1,-1,-1,-1,-1,-1,-1,-1,-1,-1,-1,-1,-1,-1,-1,-1,-1,-1,-1,-1,-1,-1,-1,-1,-1,-1,-1,-1],"loss_changes":[1.8145231E3,5.9986096E2,1.5522827E1,9.656586E1,2.19698E2,1.501416E1,8.8971615E0,7.373108E1,2.7328749E1,9.637758E1,4.835183E1,1.2925171E1,3.1962881E1,0E0,0E0,7.2904144E1,1.3452637E1,9.727596E0,9.045317E0,8.024602E1,5.2702103E1,4.0958252E1,2.5118635E1,0E0,8.437988E0,1.0636948E1,3.3316994E-1,4.4696655E1,4.406772E1,4.852783E0,1.3222374E1,0E0,0E0,0E0,0E0,4.1308403E1,6.194919E1,3.486317E1,2.0920006E1,2.2078403E1,1.8592316E1,0E0,2.1031537E0,6.2717285E0,0E0,0E0,0E0,0E0,0E0,0E0,0E0,0E0,0E0,0E0,0E0,0E0,0E0,0E0,0E0,0E0,0E0,0E0,0E0,0E0,0E0,0E0,0E0,0E0,0E0,0E0,0E0,0E0,0E0],"parents":[2147483647,0,0,1,1,2,2,3,3,4,4,5,5,6,6,7,7,8,8,9,9,10,10,11,11,12,12,15,15,16,16,17,17,18,18,19,19,20,20,21,21,22,22,24,24,25,25,26,26,27,27,28,28,29,29,30,30,35,35,36,36,37,37,38,38,39,39,40,40,42,42,43,43],"right_children":[2,4,6,8,10,12,14,16,18,20,22,24,26,-1,-1,28,30,32,34,36,38,40,42,-1,44,46,48,50,52,54,56,-1,-1,-1,-1,58,60,62,64,66,68,-1,70,72,-1,-1,-1,-1,-1,-1,-1,-1,-1,-1,-1,-1,-1,-1,-1,-1,-1,-1,-1,-1,-1,-1,-1,-1,-1,-1,-1,-1,-1],"split_conditions":[1E0,1E0,1E0,1E0,2E0,1E0,1E0,2E0,1E0,1E0,1E0,1E0,2E0,6.4427964E-2,-5.6676544E-2,2E0,1E0,1E0,1E0,4E0,1E0,1E0,1E0,4.9866118E-2,1E0,1E0,1E0,1E0,2E0,1E0,2E0,-8.627439E-2,2.559726E-2,-5.3392835E-2,6.750974E-2,1E0,3E0,1E0,2E0,1E0,1E0,-8.306569E-2,1E0,1E0,1.0199093E-2,-8.0407865E-2,3.887412E-2,6.9509655E-2,2.1652397E-2,6.279082E-2,2.8920576E-2,-5.5060398E-2,2.6467314E-2,1.3008137E-3,7.623262E-2,-6.0730603E-2,5.524687E-2,4.6468336E-2,-5.4219373E-2,-5.502038E-2,-5.060963E-3,-4.447351E-2,3.203009E-2,-6.559049E-2,5.6329098E-2,2.2111101E-2,-8.817097E-2,3.942239E-2,7.572245E-2,5.343209E-3,7.0243545E-2,-8.344826E-2,-7.7380645E-3],"split_indices":[604,717,198,44,649,718,76,649,46,522,5,434,112,0,0,337,361,515,78,434,859,59,432,0,303,342,108,97,99,380,112,0,0,0,0,685,0,384,112,914,522,0,108,240,0,0,0,0,0,0,0,0,0,0,0,0,0,0,0,0,0,0,0,0,0,0,0,0,0,0,0,0,0],"split_type":[0,0,0,0,0,0,0,0,0,0,0,0,0,0,0,0,0,0,0,0,0,0,0,0,0,0,0,0,0,0,0,0,0,0,0,0,0,0,0,0,0,0,0,0,0,0,0,0,0,0,0,0,0,0,0,0,0,0,0,0,0,0,0,0,0,0,0,0,0,0,0,0,0],"sum_hessian":[2.1911628E3,1.6483967E3,5.42766E2,9.1945233E2,7.289444E2,5.385695E2,4.1965075E0,8.9503784E2,2.4414457E1,5.370802E2,1.9186421E2,5.1422925E2,2.434024E1,2.4708579E0,1.7256497E0,4.8218732E2,4.1285056E2,1.8002647E1,6.41181E0,4.1723233E2,1.1984787E2,1.7607025E2,1.5793961E1,1.2353514E0,5.129939E2,1.8928854E1,5.411386E0,4.153139E2,6.6873405E1,3.2360333E2,8.924723E1,1.6260296E1,1.7423503E0,1.2406045E0,5.1712055E0,5.245886E1,3.6477347E2,6.2453598E1,5.739427E1,1.6656603E1,1.5941365E2,1.1078462E1,4.7154984E0,5.107628E2,2.2311263E0,1.7440243E1,1.4886111E0,3.6850088E0,1.7263774E0,2.5234132E2,1.629726E2,2.6812435E1,4.006097E1,2.210526E0,3.213928E2,1.7413105E0,8.750592E1,3.980264E1,1.265622E1,2.8527725E2,7.949619E1,3.992636E1,2.2527235E1,2.938965E0,5.4455303E1,9.426172E0,7.2304306E0,1.01571945E2,5.7841705E1,2.2170227E0,2.498476E0,5.0779645E2,2.9663475E0],"tree_param":{"num_deleted":"0","num_feature":"954","num_nodes":"73","size_leaf_vector":"1"}},{"base_weights":[2.9856456E-4,-1.4337876E0,5.3622466E-1,7.601034E-2,-1.467157E0,1.0661186E0,-1.4007922E-1,-1.5739065E0,-8.5584164E-1,1.3170671E0,7.704103E-1,6.836135E-1,-5.738698E-1,4.865335E-2,-1.5821241E0,-1.4681307E0,-4.1546226E-1,1.3490978E0,-3.0221254E-1,2.1130773E-1,1.1701102E0,8.589774E-1,-7.045287E-1,-9.648943E-1,3.0813524E-1,-1.5906074E0,3.7170097E-2,-8.480905E-2,8.669929E-2,-8.3578534E-2,-3.9444588E-2,1.4549428E0,9.0585756E-1,-7.6307125E-2,1.1540492E0,4.9323943E-1,-1.019599E0,8.826887E-3,1.2501059E0,2.8968266E-1,1.1447935E0,1.0366159E-1,-8.949828E-2,-6.0007423E-1,-1.5708215E0,-7.523714E-2,1.18277E0,-7.993677E-2,1.4948358E-2,6.5475814E-2,-6.29263E-2,2.5895579E-2,-3.737345E-2,7.326096E-2,-4.518772E-3,5.6508925E-2,-1.2837804E-2,6.883733E-2,2.2078125E-2,4.4090975E-2,-1.1062547E-2,-6.833903E-2,3.8069848E-2,5.674323E-2,-6.33998E-2,6.4029776E-2,-7.2292544E-2,3.760637E-2,-2.58483E-2,6.331633E-2,-4.757634E-3,3.671283E-2,-7.729819E-2,1.2839556E-2,-4.712609E-2,-8.20988E-2,3.1169266E-2,-2.5765225E-2,3.6897458E-2,6.579237E-2,-6.3199654E-2],"categories":[],"categories_nodes":[],"categories_segments":[],"categories_sizes":[],"default_left":[0,0,0,0,0,0,0,0,0,0,0,0,0,0,0,0,0,0,0,0,0,0,0,0,0,0,0,0,0,0,0,0,0,0,0,0,0,0,0,0,0,0,0,0,0,0,0,0,0,0,0,0,0,0,0,0,0,0,0,0,0,0,0,0,0,0,0,0,0,0,0,0,0,0,0,0,0,0,0,0,0],"id":5,"left_children":[1,3,5,-1,7,9,11,13,15,17,19,21,23,-1,25,27,29,31,33,35,37,39,41,43,45,47,-1,-1,49,-1,51,53,55,-1,57,59,61,63,65,67,69,71,-1,73,75,77,79,-1,-1,-1,-1,-1,-1,-1,-1,-1,-1,-1,-1,-1,-1,-1,-1,-1,-1,-1,-1,-1,-1,-1,-1,-1,-1,-1,-1,-1,-1,-1,-1,-1,-1],"loss_changes":[1.6813289E3,6.08938E1,5.708517E2,0E0,3.7088867E1,6.525372E1,2.5068193E2,1.2009399E1,2.359082E1,2.5389648E1,9.1903534E1,5.9539597E1,1.5873183E2,0E0,1.1026733E1,1.3320686E1,2.5250122E1,2.0849182E1,1.9869627E1,6.05815E1,2.2306274E1,3.471634E1,2.448816E1,6.946777E1,4.765692E1,8.119019E0,0E0,0E0,1.1030333E1,0E0,1.7069813E1,6.163269E0,2.4735153E1,0E0,2.1857929E-1,3.9489735E1,2.1191292E1,2.5146595E1,2.0325378E1,2.7744589E1,2.167923E1,1.8637316E1,0E0,5.9055763E1,1.961621E1,3.601224E1,1.5759377E1,0E0,0E0,0E0,0E0,0E0,0E0,0E0,0E0,0E0,0E0,0E0,0E0,0E0,0E0,0E0,0E0,0E0,0E0,0E0,0E0,0E0,0E0,0E0,0E0,0E0,0E0,0E0,0E0,0E0,0E0,0E0,0E0,0E0,0E0],"parents":[2147483647,0,0,1,1,2,2,4,4,5,5,6,6,7,7,8,8,9,9,10,10,11,11,12,12,14,14,15,15,16,16,17,17,18,18,19,19,20,20,21,21,22,22,23,23,24,24,25,25,28,28,30,30,31,31,32,32,34,34,35,35,36,36,37,37,38,38,39,39,40,40,41,41,43,43,44,44,45,45,46,46],"right_children":[2,4,6,-1,8,10,12,14,16,18,20,22,24,-1,26,28,30,32,34,36,38,40,42,44,46,48,-1,-1,50,-1,52,54,56,-1,58,60,62,64,66,68,70,72,-1,74,76,78,80,-1,-1,-1,-1,-1,-1,-1,-1,-1,-1,-1,-1,-1,-1,-1,-1,-1,-1,-1,-1,-1,-1,-1,-1,-1,-1,-1,-1,-1,-1,-1,-1,-1,-1],"split_conditions":[2E0,0E0,1E0,7.601034E-2,1E0,4E0,4E0,1E0,2E0,1E0,2E0,1E0,5E0,4.865335E-2,1E0,4E0,1E0,1E0,1E0,2E0,2E0,4E0,1E0,1E0,1E0,1E0,3.7170097E-2,-8.480905E-2,1E0,-8.3578534E-2,1E0,1E0,1E0,-7.6307125E-2,1E0,1E0,1E0,4E0,1E0,1E0,5E0,1E0,-8.949828E-2,1E0,5E0,3E0,1E0,-7.993677E-2,1.4948358E-2,6.5475814E-2,-6.29263E-2,2.5895579E-2,-3.737345E-2,7.326096E-2,-4.518772E-3,5.6508925E-2,-1.2837804E-2,6.883733E-2,2.2078125E-2,4.4090975E-2,-1.1062547E-2,-6.833903E-2,3.8069848E-2,5.674323E-2,-6.33998E-2,6.4029776E-2,-7.2292544E-2,3.760637E-2,-2.58483E-2,6.331633E-2,-4.757634E-3,3.671283E-2,-7.729819E-2,1.2839556E-2,-4.712609E-2,-8.20988E-2,3.1169266E-2,-2.5765225E-2,3.6897458E-2,6.579237E-2,-6.3199654E-2],"split_indices":[112,112,717,0,603,545,545,434,624,604,99,47,866,0,223,208,402,706,645,337,593,866,369,685,522,50,0,0,67,0,800,44,496,0,58,97,189,421,358,390,128,712,0,32,84,592,712,0,0,0,0,0,0,0,0,0,0,0,0,0,0,0,0,0,0,0,0,0,0,0,0,0,0,0,0,0,0,0,0,0,0],"split_type":[0,0,0,0,0,0,0,0,0,0,0,0,0,0,0,0,0,0,0,0,0,0,0,0,0,0,0,0,0,0,0,0,0,0,0,0,0,0,0,0,0,0,0,0,0,0,0,0,0,0,0,0,0,0,0,0,0,0,0,0,0,0,0,0,0,0,0,0,0,0,0,0,0,0,0,0,0,0,0,0,0],"sum_hessian":[2.185623E3,5.9412555E2,1.5914976E3,6.138781E0,5.8798676E2,8.920147E2,6.9948285E2,4.992344E2,8.875234E1,4.8065756E2,4.1135712E2,2.4110005E2,4.5838278E2,1.2279476E0,4.9800647E2,3.615284E1,5.2599506E1,4.714978E2,9.159765E0,1.721214E2,2.3923573E2,2.1439655E2,2.67035E1,3.1752057E2,1.4086221E2,4.9651126E2,1.4951966E0,3.1449205E1,4.703632E0,1.1324365E1,4.1275143E1,3.7876654E2,9.2731255E1,4.9508157E0,4.2089496E0,1.4053256E2,3.1588839E1,1.5489363E1,2.2374637E2,7.233388E1,1.4206267E2,1.5825049E1,1.0878452E1,1.9943436E2,1.1808623E2,9.8570496E1,4.229172E1,4.945379E2,1.9733505E0,2.4778228E0,2.2258093E0,2.3245117E1,1.8030024E1,3.7631586E2,2.4506974E0,7.775642E1,1.4974843E1,2.4963646E0,1.7125851E0,9.0875275E1,4.9657284E1,2.6630207E1,4.9586315E0,8.289757E0,7.1996055E0,2.2176335E2,1.9830106E0,4.6019108E1,2.6314766E1,1.29362E2,1.2700668E1,1.185007E1,3.9749792E0,5.7017197E1,1.4241716E2,1.1462094E2,3.465283E0,6.419615E1,3.4374348E1,4.054853E1,1.74319E0],"tree_param":{"num_deleted":"0","num_feature":"954","num_nodes":"81","size_leaf_vector":"1"}},{"base_weights":[1.1640538E-2,-1.3741747E0,5.3421193E-1,7.5205624E-2,-1.4124442E0,1.0391023E0,-1.18259996E-1,-1.5152239E0,-8.1925386E-1,5.268938E-1,1.1740122E0,6.6645944E-1,-5.234887E-1,-1.532802E0,-1.9394936E-1,-9.319903E-1,1.0677487E0,9.954915E-1,-6.406427E-2,1.2393355E0,3.247802E-1,7.624021E-1,-7.82603E-2,-9.325662E-1,3.8362154E-1,-1.5411258E0,3.6103792E-2,-6.399065E-2,5.883593E-2,-1.1781793E0,-1.7921183E-2,7.046102E-2,1.5462589E-2,1.0665929E0,-6.540533E-1,-1.2083657E0,4.0294176E-1,1.4945313E0,1.0870295E0,-6.758703E-1,9.459244E-1,2.886488E-1,1.1535809E0,-1.0929741E0,8.708804E-1,-1.8336253E-2,1.2104955E0,1.4456923E-2,-7.745502E-2,-7.0253694E-3,-7.645417E-2,-4.267171E-2,5.3451497E-2,5.8566988E-2,4.9148705E-3,-6.961464E-2,4.504023E-2,-9.703875E-2,3.3316426E-2,5.0653387E-2,-2.2042142E-2,7.558997E-2,1.4259963E-2,5.7746388E-2,2.5230434E-3,-9.5963314E-2,1.5497674E-2,6.0231805E-2,-3.670686E-2,-2.36537E-2,3.953188E-2,6.2013727E-2,-9.458324E-3,6.3707344E-3,-6.1118066E-2,6.038744E-2,-6.6927016E-2,-2.8616905E-2,3.3451784E-2,6.554277E-2,-5.4614194E-2],"categories":[],"categories_nodes":[],"categories_segments":[],"categories_sizes":[],"default_left":[0,0,0,0,0,0,0,0,0,0,0,0,0,0,0,0,0,0,0,0,0,0,0,0,0,0,0,0,0,0,0,0,0,0,0,0,0,0,0,0,0,0,0,0,0,0,0,0,0,0,0,0,0,0,0,0,0,0,0,0,0,0,0,0,0,0,0,0,0,0,0,0,0,0,0,0,0,0,0,0,0],"id":6,"left_children":[1,3,5,-1,7,9,11,13,15,17,19,21,23,25,27,29,31,33,35,37,39,41,-1,43,45,47,-1,-1,-1,49,51,-1,-1,53,55,57,59,61,63,65,67,69,71,73,75,77,79,-1,-1,-1,-1,-1,-1,-1,-1,-1,-1,-1,-1,-1,-1,-1,-1,-1,-1,-1,-1,-1,-1,-1,-1,-1,-1,-1,-1,-1,-1,-1,-1,-1,-1],"loss_changes":[1.5716074E3,6.758215E1,5.192654E2,0E0,3.4545166E1,6.0780334E1,2.192444E2,1.1294922E1,1.9898788E1,5.186258E1,3.8566956E1,5.147959E1,1.6901683E2,1.0355103E1,1.2963147E1,1.896833E1,9.8240995E-1,1.2940666E1,4.519712E1,2.3715088E1,3.2667843E1,4.1522324E1,0E0,9.165436E1,4.720942E1,7.6132812E0,0E0,0E0,0E0,2.3986343E1,1.8095337E1,0E0,0E0,1.0073463E1,6.9170456E0,3.493103E1,3.1421097E1,4.6016235E0,2.8934753E1,2.5501575E1,1.4884926E1,3.994175E1,1.4596146E1,4.56904E1,2.1091827E1,3.7137356E1,1.2167877E1,0E0,0E0,0E0,0E0,0E0,0E0,0E0,0E0,0E0,0E0,0E0,0E0,0E0,0E0,0E0,0E0,0E0,0E0,0E0,0E0,0E0,0E0,0E0,0E0,0E0,0E0,0E0,0E0,0E0,0E0,0E0,0E0,0E0,0E0],"parents":[2147483647,0,0,1,1,2,2,4,4,5,5,6,6,7,7,8,8,9,9,10,10,11,11,12,12,13,13,14,14,15,15,16,16,17,17,18,18,19,19,20,20,21,21,23,23,24,24,25,25,29,29,30,30,33,33,34,34,35,35,36,36,37,37,38,38,39,39,40,40,41,41,42,42,43,43,44,44,45,45,46,46],"right_children":[2,4,6,-1,8,10,12,14,16,18,20,22,24,26,28,30,32,34,36,38,40,42,-1,44,46,48,-1,-1,-1,50,52,-1,-1,54,56,58,60,62,64,66,68,70,72,74,76,78,80,-1,-1,-1,-1,-1,-1,-1,-1,-1,-1,-1,-1,-1,-1,-1,-1,-1,-1,-1,-1,-1,-1,-1,-1,-1,-1,-1,-1,-1,-1,-1,-1,-1,-1],"split_conditions":[2E0,0E0,1E0,7.5205624E-2,1E0,3E0,4E0,1E0,4E0,4E0,1E0,1E0,5E0,1E0,1E0,1E0,1E0,1E0,1E0,4E0,1E0,1E0,-7.82603E-2,1E0,1E0,1E0,3.6103792E-2,-6.399065E-2,5.883593E-2,1E0,1E0,7.046102E-2,1.5462589E-2,1E0,1E0,1E0,4E0,1E0,1E0,1E0,1E0,1E0,1E0,1E0,3E0,4E0,1E0,1.4456923E-2,-7.745502E-2,-7.0253694E-3,-7.645417E-2,-4.267171E-2,5.3451497E-2,5.8566988E-2,4.9148705E-3,-6.961464E-2,4.504023E-2,-9.703875E-2,3.3316426E-2,5.0653387E-2,-2.2042142E-2,7.558997E-2,1.4259963E-2,5.7746388E-2,2.5230434E-3,-9.5963314E-2,1.5497674E-2,6.0231805E-2,-3.670686E-2,-2.36537E-2,3.953188E-2,6.2013727E-2,-9.458324E-3,6.3707344E-3,-6.1118066E-2,6.038744E-2,-6.6927016E-2,-2.8616905E-2,3.3451784E-2,6.554277E-2,-5.4614194E-2],"split_indices":[112,112,717,0,603,29,545,342,725,545,65,604,866,223,166,141,62,44,546,447,923,860,0,189,522,60,0,0,0,405,162,0,0,35,189,108,447,874,91,852,361,544,65,573,396,29,5,0,0,0,0,0,0,0,0,0,0,0,0,0,0,0,0,0,0,0,0,0,0,0,0,0,0,0,0,0,0,0,0,0,0],"split_type":[0,0,0,0,0,0,0,0,0,0,0,0,0,0,0,0,0,0,0,0,0,0,0,0,0,0,0,0,0,0,0,0,0,0,0,0,0,0,0,0,0,0,0,0,0,0,0,0,0,0,0,0,0,0,0,0,0,0,0,0,0,0,0,0,0,0,0,0,0,0,0,0,0,0,0,0,0,0,0,0,0],"sum_hessian":[2.168153E3,5.9325665E2,1.5748964E3,7.281806E0,5.8597485E2,8.875259E2,6.873704E2,4.9811435E2,8.786053E1,1.8605223E2,7.0147363E2,2.3385977E2,4.5351065E2,4.914165E2,6.6978545E0,8.33849E1,4.4756207E0,1.0338722E2,8.266501E1,6.509434E2,5.0530224E1,2.2485144E2,9.00833E0,3.1253802E2,1.4097264E2,4.899245E2,1.492001E0,3.7741785E0,2.923676E0,6.546428E1,1.7920624E1,2.4946358E0,1.9809847E0,9.94538E1,3.933419E0,2.3498743E1,5.9166267E1,2.399999E2,4.109435E2,1.9319233E1,3.121099E1,1.0247851E2,1.2237294E2,2.8737164E2,2.5166367E1,9.551767E1,4.545497E1,1.9724247E0,4.8795206E2,1.6897238E1,4.8567043E1,1.0253695E1,7.66693E0,8.955623E1,9.8975725E0,2.737988E0,1.195431E0,1.6871933E1,6.6268106E0,3.422102E1,2.4945248E1,2.363746E2,3.625295E0,3.855732E2,2.5370316E1,8.124779E0,1.1194454E1,2.7291388E1,3.9196029E0,4.073079E1,6.1747715E1,1.1502288E2,7.350062E0,2.7548428E1,2.5982324E2,2.2230297E1,2.9360688E0,5.298259E1,4.2535076E1,4.3969444E1,1.485528E0],"tree_param":{"num_deleted":"0","num_feature":"954","num_nodes":"81","size_leaf_vector":"1"}},{"base_weights":[2.1822804E-3,-1.3434529E0,4.985849E-1,7.281878E-2,-1.3810139E0,9.6969146E-1,-9.795121E-2,-1.4792424E0,-8.061954E-1,7.016469E-1,1.28437E0,6.7727613E-1,-5.2666146E-1,-1.4967926E0,-9.383205E-2,-1.1140808E0,-1.4096966E-1,1.1721787E0,3.834038E-1,1.3990077E0,9.019255E-1,7.6187825E-1,-7.501954E-2,-9.1315925E-1,3.0836612E-1,-1.5050464E0,3.508177E-2,6.5243885E-2,-6.13997E-2,-1.2388189E0,4.6687577E-2,-7.951165E-2,4.217111E-1,1.2305255E0,-2.7313465E-1,-1.0996571E-1,8.5275143E-1,1.4466959E0,8.808312E-1,1.0149198E0,-5.955721E-1,1.0472789E0,1.9136865E-1,-1.0466313E0,7.326284E-1,7.311937E-2,1.5516895E0,-7.575842E-2,-1.3290929E-2,-7.5750016E-2,-1.8077297E-2,4.2271186E-2,-6.89648E-2,-5.583475E-2,6.261706E-2,5.5641413E-2,-8.5932635E-2,4.949676E-2,-2.1087596E-2,-1.4404244E-2,5.0682582E-2,7.368698E-2,4.7657464E-2,-4.910349E-2,6.388775E-2,5.4953583E-2,-3.8413186E-2,-8.528791E-2,5.9503503E-2,7.538897E-2,3.4762353E-2,5.8663357E-2,-1.2897183E-2,-3.4323286E-2,-8.127875E-2,-6.986004E-2,6.1232477E-2,6.784887E-2,-7.2473697E-3,2.772199E-2,8.411079E-2],"categories":[],"categories_nodes":[],"categories_segments":[],"categories_sizes":[],"default_left":[0,0,0,0,0,0,0,0,0,0,0,0,0,0,0,0,0,0,0,0,0,0,0,0,0,0,0,0,0,0,0,0,0,0,0,0,0,0,0,0,0,0,0,0,0,0,0,0,0,0,0,0,0,0,0,0,0,0,0,0,0,0,0,0,0,0,0,0,0,0,0,0,0,0,0,0,0,0,0,0,0],"id":7,"left_children":[1,3,5,-1,7,9,11,13,15,17,19,21,23,25,27,29,31,33,35,37,39,41,-1,43,45,47,-1,-1,-1,49,-1,-1,51,53,55,57,59,61,63,65,67,69,71,73,75,77,79,-1,-1,-1,-1,-1,-1,-1,-1,-1,-1,-1,-1,-1,-1,-1,-1,-1,-1,-1,-1,-1,-1,-1,-1,-1,-1,-1,-1,-1,-1,-1,-1,-1,-1],"loss_changes":[1.4404827E3,6.3126587E1,4.4281622E2,0E0,3.1215454E1,7.335022E1,2.3168448E2,1.1749023E1,1.7449799E1,7.106482E1,1.6438416E1,4.6887047E1,1.4510959E2,9.816772E0,1.2998685E1,1.6131233E1,2.3784126E1,1.6544159E1,6.640801E1,6.3564453E0,1.6835175E1,3.8823334E1,0E0,6.8207886E1,4.1634712E1,5.6346436E0,0E0,0E0,0E0,1.2944153E1,0E0,0E0,1.734951E1,1.0867798E1,1.8493624E1,4.8600395E1,2.7252716E1,2.348816E0,2.2388308E1,1.4283752E1,1.6620714E1,2.4812973E1,3.6100067E1,5.818512E1,2.6462097E1,3.409353E1,2.0169334E0,0E0,0E0,0E0,0E0,0E0,0E0,0E0,0E0,0E0,0E0,0E0,0E0,0E0,0E0,0E0,0E0,0E0,0E0,0E0,0E0,0E0,0E0,0E0,0E0,0E0,0E0,0E0,0E0,0E0,0E0,0E0,0E0,0E0,0E0],"parents":[2147483647,0,0,1,1,2,2,4,4,5,5,6,6,7,7,8,8,9,9,10,10,11,11,12,12,13,13,14,14,15,15,16,16,17,17,18,18,19,19,20,20,21,21,23,23,24,24,25,25,29,29,32,32,33,33,34,34,35,35,36,36,37,37,38,38,39,39,40,40,41,41,42,42,43,43,44,44,45,45,46,46],"right_children":[2,4,6,-1,8,10,12,14,16,18,20,22,24,26,28,30,32,34,36,38,40,42,-1,44,46,48,-1,-1,-1,50,-1,-1,52,54,56,58,60,62,64,66,68,70,72,74,76,78,80,-1,-1,-1,-1,-1,-1,-1,-1,-1,-1,-1,-1,-1,-1,-1,-1,-1,-1,-1,-1,-1,-1,-1,-1,-1,-1,-1,-1,-1,-1,-1,-1,-1,-1],"split_conditions":[2E0,0E0,1E0,7.281878E-2,1E0,2E0,4E0,1E0,1E0,4E0,1E0,1E0,5E0,1E0,4E0,1E0,1E0,3E0,4E0,1E0,1E0,1E0,-7.501954E-2,1E0,4E0,1E0,3.508177E-2,6.5243885E-2,-6.13997E-2,1E0,4.6687577E-2,-7.951165E-2,1E0,2E0,2E0,2E0,1E0,1E0,1E0,1E0,1E0,1E0,1E0,1E0,2E0,1E0,1E0,-7.575842E-2,-1.3290929E-2,-7.5750016E-2,-1.8077297E-2,4.2271186E-2,-6.89648E-2,-5.583475E-2,6.261706E-2,5.5641413E-2,-8.5932635E-2,4.949676E-2,-2.1087596E-2,-1.4404244E-2,5.0682582E-2,7.368698E-2,4.7657464E-2,-4.910349E-2,6.388775E-2,5.4953583E-2,-3.8413186E-2,-8.528791E-2,5.9503503E-2,7.538897E-2,3.4762353E-2,5.8663357E-2,-1.2897183E-2,-3.4323286E-2,-8.127875E-2,-6.986004E-2,6.1232477E-2,6.784887E-2,-7.2473697E-3,2.772199E-2,8.411079E-2],"split_indices":[112,112,717,0,603,649,545,342,715,447,361,604,866,223,447,342,699,351,161,66,635,361,0,189,49,886,0,0,0,290,0,0,809,866,77,207,586,65,93,194,66,824,417,685,624,573,780,0,0,0,0,0,0,0,0,0,0,0,0,0,0,0,0,0,0,0,0,0,0,0,0,0,0,0,0,0,0,0,0,0,0],"split_type":[0,0,0,0,0,0,0,0,0,0,0,0,0,0,0,0,0,0,0,0,0,0,0,0,0,0,0,0,0,0,0,0,0,0,0,0,0,0,0,0,0,0,0,0,0,0,0,0,0,0,0,0,0,0,0,0,0,0,0,0,0,0,0,0,0,0,0,0,0,0,0,0,0,0,0,0,0,0,0,0,0],"sum_hessian":[2.154483E3,5.801422E2,1.5743408E3,7.179798E0,5.7296246E2,8.792998E2,6.95041E2,4.8799704E2,8.4965385E1,4.7657812E2,4.0272165E2,2.4729077E2,4.4775024E2,4.8181314E2,6.183917E0,5.7621685E1,2.7343699E1,1.912E2,2.853781E2,3.0780038E2,9.4921265E1,2.3866866E2,8.622112E0,3.0601547E2,1.4173476E2,4.803252E2,1.4879264E0,2.7016165E0,3.4823008E0,5.4685715E1,2.9359725E0,7.1364913E0,2.0207207E1,1.8392369E2,7.2763166E0,1.3950197E2,1.4587616E2,2.8021964E2,2.7580748E1,8.8561104E1,6.3601584E0,1.5852829E2,8.014036E1,2.833963E2,2.2619164E1,1.2007451E2,2.166025E1,4.7621283E2,4.112364E0,4.1038967E1,1.3646747E1,1.6788141E1,3.4190667E0,1.2315403E0,1.8269214E2,3.8321774E0,3.4441395E0,3.0330118E1,1.09171844E2,1.793321E1,1.27942955E2,2.637799E2,1.6439735E1,4.585449E0,2.2995298E1,8.493644E1,3.6246667E0,3.949423E0,2.4107354E0,6.726041E1,9.126789E1,2.4653318E1,5.548704E1,1.7605609E2,1.0734023E2,3.899508E0,1.8719656E1,1.66755E1,1.0339901E2,3.1142669E0,1.8545982E1],"tree_param":{"num_deleted":"0","num_feature":"954","num_nodes":"81","size_leaf_vector":"1"}},{"base_weights":[1.4186205E-4,-1.2893406E0,4.705651E-1,6.9110505E-2,-1.3198191E0,9.420156E-1,-1.23461425E-1,-1.439662E0,-6.677749E-1,1.207636E0,6.3971204E-1,6.252657E-1,-5.235946E-1,-1.4569087E0,-2.620431E-1,-1.001849E0,-2.2703096E-2,1.3016282E0,7.9316175E-1,1.1825824E-1,1.0092306E0,3.0445695E-1,1.2569531E0,-8.249969E-1,3.8782698E-1,-1.46519E0,3.4101084E-2,-6.27712E-2,5.498443E-2,-1.3584276E0,-7.319411E-2,8.123397E-1,-1.0362784E0,1.3266495E0,4.6968043E-1,-3.966118E-2,1.0139445E0,3.759293E-1,-1.1423881E0,1.1792094E0,4.3568555E-1,-6.669313E-2,1.0423338E0,1.3057065E0,-5.272929E-2,3.522015E-1,-9.718479E-1,5.919029E-1,-1.2804152E0,-7.367748E-2,1.6478822E-2,-7.3001884E-2,4.259695E-2,-5.2383628E-2,4.5998383E-2,5.706513E-2,-6.0435027E-2,-7.959768E-2,3.6705207E-2,6.8483256E-2,4.7844145E-2,4.6399575E-2,-6.601343E-2,-9.144949E-2,3.0483305E-2,5.4119892E-2,-6.4116225E-2,3.9165493E-2,-1.2394423E-2,-7.671161E-2,4.3611284E-2,1.6589766E-2,6.442629E-2,4.036544E-2,-4.6884682E-2,6.010109E-2,-2.0667952E-2,1.0824643E-2,6.9030516E-2,7.052893E-2,2.6672289E-2,7.840474E-2,-1.900853E-2,-6.6696614E-2,-2.6257528E-2,9.812032E-3,5.9859406E-2,-8.007873E-2,4.7187585E-2],"categories":[],"categories_nodes":[],"categories_segments":[],"categories_sizes":[],"default_left":[0,0,0,0,0,0,0,0,0,0,0,0,0,0,0,0,0,0,0,0,0,0,0,0,0,0,0,0,0,0,0,0,0,0,0,0,0,0,0,0,0,0,0,0,0,0,0,0,0,0,0,0,0,0,0,0,0,0,0,0,0,0,0,0,0,0,0,0,0,0,0,0,0,0,0,0,0,0,0,0,0,0,0,0,0,0,0,0,0],"id":8,"left_children":[1,3,5,-1,7,9,11,13,15,17,19,21,23,25,27,29,31,33,35,37,39,41,43,45,47,49,-1,-1,-1,51,53,55,57,59,61,63,65,67,69,71,73,75,77,79,-1,81,83,85,87,-1,-1,-1,-1,-1,-1,-1,-1,-1,-1,-1,-1,-1,-1,-1,-1,-1,-1,-1,-1,-1,-1,-1,-1,-1,-1,-1,-1,-1,-1,-1,-1,-1,-1,-1,-1,-1,-1,-1,-1],"loss_changes":[1.2889474E3,4.8071777E1,4.3612875E2,0E0,4.2961243E1,6.893536E1,2.069768E2,9.244202E0,1.9185719E1,1.692566E1,7.852521E1,4.839428E1,1.23958405E2,9.269409E0,1.22838745E1,1.9338081E1,2.7447414E1,7.166321E0,1.6179062E1,5.578282E1,2.2761185E1,4.4146763E1,1.0476959E1,5.886798E1,3.9068638E1,7.4681396E0,0E0,0E0,0E0,1.07569275E1,1.7748215E1,1.3210988E1,1.5569726E1,4.4588013E0,1.1457989E1,2.3602741E1,1.22994E1,3.6341583E1,2.436298E1,1.6578262E1,2.9422512E1,4.8007748E1,1.4765141E1,5.688339E0,0E0,3.468619E1,4.8026733E1,2.3941147E1,1.0498632E1,0E0,0E0,0E0,0E0,0E0,0E0,0E0,0E0,0E0,0E0,0E0,0E0,0E0,0E0,0E0,0E0,0E0,0E0,0E0,0E0,0E0,0E0,0E0,0E0,0E0,0E0,0E0,0E0,0E0,0E0,0E0,0E0,0E0,0E0,0E0,0E0,0E0,0E0,0E0,0E0],"parents":[2147483647,0,0,1,1,2,2,4,4,5,5,6,6,7,7,8,8,9,9,10,10,11,11,12,12,13,13,14,14,15,15,16,16,17,17,18,18,19,19,20,20,21,21,22,22,23,23,24,24,25,25,29,29,30,30,31,31,32,32,33,33,34,34,35,35,36,36,37,37,38,38,39,39,40,40,41,41,42,42,43,43,45,45,46,46,47,47,48,48],"right_children":[2,4,6,-1,8,10,12,14,16,18,20,22,24,26,28,30,32,34,36,38,40,42,44,46,48,50,-1,-1,-1,52,54,56,58,60,62,64,66,68,70,72,74,76,78,80,-1,82,84,86,88,-1,-1,-1,-1,-1,-1,-1,-1,-1,-1,-1,-1,-1,-1,-1,-1,-1,-1,-1,-1,-1,-1,-1,-1,-1,-1,-1,-1,-1,-1,-1,-1,-1,-1,-1,-1,-1,-1,-1,-1],"split_conditions":[2E0,0E0,1E0,6.9110505E-2,1E0,4E0,4E0,1E0,1E0,1E0,2E0,1E0,2E0,1E0,1E0,2E0,1E0,1E0,1E0,1E0,1E0,1E0,2E0,1E0,1E0,1E0,3.4101084E-2,-6.27712E-2,5.498443E-2,3E0,1E0,1E0,1E0,1E0,1E0,1E0,1E0,1E0,1E0,3E0,1E0,3E0,1E0,1E0,-5.272929E-2,1E0,1E0,1E0,1E0,-7.367748E-2,1.6478822E-2,-7.3001884E-2,4.259695E-2,-5.2383628E-2,4.5998383E-2,5.706513E-2,-6.0435027E-2,-7.959768E-2,3.6705207E-2,6.8483256E-2,4.7844145E-2,4.6399575E-2,-6.601343E-2,-9.144949E-2,3.0483305E-2,5.4119892E-2,-6.4116225E-2,3.9165493E-2,-1.2394423E-2,-7.671161E-2,4.3611284E-2,1.6589766E-2,6.442629E-2,4.036544E-2,-4.6884682E-2,6.010109E-2,-2.0667952E-2,1.0824643E-2,6.9030516E-2,7.052893E-2,2.6672289E-2,7.840474E-2,-1.900853E-2,-6.6696614E-2,-2.6257528E-2,9.812032E-3,5.9859406E-2,-8.007873E-2,4.7187585E-2],"split_indices":[112,112,717,0,603,545,545,342,715,706,99,522,649,223,799,649,289,330,858,92,97,444,849,573,589,50,0,0,0,380,443,283,278,66,361,93,436,732,651,29,685,545,731,272,0,181,501,35,491,0,0,0,0,0,0,0,0,0,0,0,0,0,0,0,0,0,0,0,0,0,0,0,0,0,0,0,0,0,0,0,0,0,0,0,0,0,0,0,0],"split_type":[0,0,0,0,0,0,0,0,0,0,0,0,0,0,0,0,0,0,0,0,0,0,0,0,0,0,0,0,0,0,0,0,0,0,0,0,0,0,0,0,0,0,0,0,0,0,0,0,0,0,0,0,0,0,0,0,0,0,0,0,0,0,0,0,0,0,0,0,0,0,0,0,0,0,0,0,0,0,0,0,0,0,0,0,0,0,0,0,0],"sum_hessian":[2.1228633E3,5.6697656E2,1.5558866E3,5.895158E0,5.610814E2,8.6711395E2,6.887727E2,4.7294775E2,8.813366E1,4.59967E2,4.071469E2,2.3969466E2,4.4907803E2,4.6588745E2,7.060288E0,5.7699024E1,3.0434635E1,3.7319534E2,8.677167E1,1.6940608E2,2.3774084E2,1.5994629E2,7.974837E1,3.3754767E2,1.1153038E2,4.644044E2,1.4830606E0,4.127414E0,2.9328735E0,4.135646E1,1.6342566E1,1.6795805E1,1.363883E1,3.617217E2,1.1473637E1,1.8354889E1,6.841678E1,1.4123915E2,2.816692E1,1.8257578E2,5.516506E1,1.07023415E2,5.2922874E1,7.852726E1,1.2211077E0,3.7282505E1,3.0026517E2,9.994884E1,1.1581541E1,4.6242953E2,1.9748739E0,3.9863407E1,1.4930527E0,8.2211685E0,8.121398E0,1.4819016E1,1.9767886E0,1.0457338E1,3.1814911E0,3.2160483E2,4.0116867E1,9.518108E0,1.9555286E0,4.403519E0,1.3951369E1,6.694959E1,1.4671814E0,8.5287186E1,5.595197E1,2.3780117E1,4.3868027E0,2.1322243E1,1.6125354E2,4.3741264E1,1.1423795E1,2.2438059E1,8.458536E1,1.5855215E1,3.706766E1,6.8410614E1,1.0116642E1,1.3585903E1,2.3696602E1,1.6474214E2,1.3552303E2,6.1241055E1,3.8707787E1,1.036483E1,1.2167113E0],"tree_param":{"num_deleted":"0","num_feature":"954","num_nodes":"89","size_leaf_vector":"1"}},{"base_weights":[1.8558472E-2,4.449389E-1,-1.3521099E0,8.869237E-1,-1.0118321E-1,-1.4001175E0,-4.101509E-1,6.276793E-1,1.2056924E0,5.708882E-1,-5.0041765E-1,-1.4155347E0,4.0425572E-1,-9.8415595E-1,1.1473246E0,1.6470063E-3,8.1360424E-1,1.3137373E0,7.905285E-1,-6.480117E-1,7.187024E-1,-7.845633E-1,3.5860375E-1,5.314368E-2,-1.4244168E0,6.0188085E-2,-4.5358643E-2,-6.900283E-2,4.9830717E-1,1.5934147E-2,6.649245E-2,5.516206E-1,-6.223985E-1,1.0706091E0,3.3623168E-1,1.3283545E0,-1.996679E-1,9.076521E-1,-9.1637754E-1,5.195888E-1,-1.0901502E0,4.393084E-1,1.2629583E0,5.91366E-1,-9.556614E-1,5.1784205E-1,-1.2353745E0,-1.4323142E0,9.981332E-3,5.4688223E-2,-3.902289E-2,-1.7858224E-2,4.3287616E-2,-5.6987207E-2,3.4008E-2,5.652258E-3,5.625644E-2,3.141102E-2,-3.921968E-2,-5.0211153E-3,6.692378E-2,4.7036048E-2,-5.4053504E-2,-5.278309E-2,4.818609E-2,-8.0753E-2,4.8193324E-2,-5.2658644E-2,5.507509E-2,-7.404872E-2,4.4076383E-2,5.8014166E-2,8.237547E-3,1.2782204E-2,6.842371E-2,-7.129357E-2,4.6355944E-2,-5.2764464E-2,3.1835772E-2,3.3848967E-2,-4.1598674E-2,-8.117337E-2,4.736495E-2,-7.2138354E-2,-8.131004E-3],"categories":[],"categories_nodes":[],"categories_segments":[],"categories_sizes":[],"default_left":[0,0,0,0,0,0,0,0,0,0,0,0,0,0,0,0,0,0,0,0,0,0,0,0,0,0,0,0,0,0,0,0,0,0,0,0,0,0,0,0,0,0,0,0,0,0,0,0,0,0,0,0,0,0,0,0,0,0,0,0,0,0,0,0,0,0,0,0,0,0,0,0,0,0,0,0,0,0,0,0,0,0,0,0,0],"id":9,"left_children":[1,3,5,7,9,11,13,15,17,19,21,23,25,27,29,31,33,35,37,39,41,43,45,-1,47,-1,-1,-1,49,-1,-1,51,53,55,57,59,61,63,65,67,69,71,73,75,77,79,81,83,-1,-1,-1,-1,-1,-1,-1,-1,-1,-1,-1,-1,-1,-1,-1,-1,-1,-1,-1,-1,-1,-1,-1,-1,-1,-1,-1,-1,-1,-1,-1,-1,-1,-1,-1,-1,-1],"loss_changes":[1.2250137E3,3.8598734E2,2.1916016E1,7.227234E1,1.92403E2,1.3725037E1,2.3954998E1,5.696762E1,1.6691711E1,4.8625153E1,1.1005169E2,1.1838623E1,6.1074667E0,1.1953255E1,6.859846E-1,3.9152306E1,4.5938187E1,7.170166E0,1.7652008E1,1.5762003E1,3.576725E1,8.019548E1,2.9186676E1,0E0,6.2855225E0,0E0,0E0,0E0,4.4936495E0,0E0,0E0,1.7619406E1,3.6787766E1,1.2655243E1,4.4182724E1,4.6068115E0,4.892036E0,9.739769E0,9.307575E0,9.179133E0,1.8006313E1,3.1356215E1,8.205551E0,2.7077688E1,4.845932E1,2.267916E1,1.0441099E1,5.9452515E0,0E0,0E0,0E0,0E0,0E0,0E0,0E0,0E0,0E0,0E0,0E0,0E0,0E0,0E0,0E0,0E0,0E0,0E0,0E0,0E0,0E0,0E0,0E0,0E0,0E0,0E0,0E0,0E0,0E0,0E0,0E0,0E0,0E0,0E0,0E0,0E0,0E0],"parents":[2147483647,0,0,1,1,2,2,3,3,4,4,5,5,6,6,7,7,8,8,9,9,10,10,11,11,12,12,13,13,14,14,15,15,16,16,17,17,18,18,19,19,20,20,21,21,22,22,24,24,28,28,31,31,32,32,33,33,34,34,35,35,36,36,37,37,38,38,39,39,40,40,41,41,42,42,43,43,44,44,45,45,46,46,47,47],"right_children":[2,4,6,8,10,12,14,16,18,20,22,24,26,28,30,32,34,36,38,40,42,44,46,-1,48,-1,-1,-1,50,-1,-1,52,54,56,58,60,62,64,66,68,70,72,74,76,78,80,82,84,-1,-1,-1,-1,-1,-1,-1,-1,-1,-1,-1,-1,-1,-1,-1,-1,-1,-1,-1,-1,-1,-1,-1,-1,-1,-1,-1,-1,-1,-1,-1,-1,-1,-1,-1,-1,-1],"split_conditions":[1E0,1E0,1E0,2E0,4E0,1E0,2E0,3E0,1E0,2E0,2E0,1E0,1E0,4E0,5E0,4E0,1E0,1E0,1E0,1E0,2E0,4E0,1E0,5.314368E-2,1E0,6.0188085E-2,-4.5358643E-2,-6.900283E-2,2E0,1.5934147E-2,6.649245E-2,1E0,1E0,2E0,1E0,1E0,2E0,2E0,1E0,5E0,1E0,1E0,2E0,1E0,4E0,1E0,1E0,1E0,9.981332E-3,5.4688223E-2,-3.902289E-2,-1.7858224E-2,4.3287616E-2,-5.6987207E-2,3.4008E-2,5.652258E-3,5.625644E-2,3.141102E-2,-3.921968E-2,-5.0211153E-3,6.692378E-2,4.7036048E-2,-5.4053504E-2,-5.278309E-2,4.818609E-2,-8.0753E-2,4.8193324E-2,-5.2658644E-2,5.507509E-2,-7.404872E-2,4.4076383E-2,5.8014166E-2,8.237547E-3,1.2782204E-2,6.842371E-2,-7.129357E-2,4.6355944E-2,-5.2764464E-2,3.1835772E-2,3.3848967E-2,-4.1598674E-2,-8.117337E-2,4.736495E-2,-7.2138354E-2,-8.131004E-3],"split_indices":[604,717,718,649,545,198,112,29,361,112,649,434,76,359,262,545,720,44,65,405,649,434,399,0,303,0,0,0,494,0,0,773,145,112,706,380,170,112,581,421,410,417,813,719,49,589,189,749,0,0,0,0,0,0,0,0,0,0,0,0,0,0,0,0,0,0,0,0,0,0,0,0,0,0,0,0,0,0,0,0,0,0,0,0,0],"split_type":[0,0,0,0,0,0,0,0,0,0,0,0,0,0,0,0,0,0,0,0,0,0,0,0,0,0,0,0,0,0,0,0,0,0,0,0,0,0,0,0,0,0,0,0,0,0,0,0,0,0,0,0,0,0,0,0,0,0,0,0,0,0,0,0,0,0,0,0,0,0,0,0,0,0,0,0,0,0,0,0,0,0,0,0,0],"sum_hessian":[2.0940674E3,1.5977292E3,4.9633798E2,8.827127E2,7.150166E2,4.718057E2,2.4532305E1,4.8844504E2,3.9426764E2,2.6629892E2,4.4871768E2,4.6802222E2,3.783472E0,1.8194763E1,6.3375425E0,1.1207694E2,3.763681E2,3.1113226E2,8.313536E1,2.8435028E1,2.3786389E2,3.372495E2,1.1146816E2,1.2475287E0,4.667747E2,2.4015052E0,1.3819668E0,1.44143915E1,3.7803712E0,1.639655E0,4.6978874E0,5.9635777E1,5.244117E1,2.4384541E2,1.325227E2,3.0827704E2,2.8552299E0,7.82353E1,4.900063E0,7.7619863E0,2.0673042E1,1.5837117E2,7.949272E1,3.702745E1,3.0022208E2,1.0195772E2,9.510446E0,4.646333E2,2.1413817E0,2.6780212E0,1.10235E0,1.5283504E1,4.4352272E1,3.762314E1,1.4818031E1,1.3301212E1,2.3054419E2,1.0547871E2,2.7043991E1,2.1056416E0,3.061714E2,1.2154012E0,1.6398287E0,1.6772614E0,7.655804E1,3.675366E0,1.2246971E0,1.8775647E0,5.8844213E0,1.7460846E1,3.2121956E0,4.2787415E1,1.15583755E2,7.861853E0,7.1630875E1,4.8202295E0,3.2207222E1,2.8286197E2,1.736011E1,9.165095E1,1.0306774E1,8.292236E0,1.2182088E0,4.6070422E2,3.9290788E0],"tree_param":{"num_deleted":"0","num_feature":"954","num_nodes":"85","size_leaf_vector":"1"}},{"base_weights":[5.15316E-3,4.1385725E-1,-1.3228219E0,8.393828E-1,-9.672819E-2,-7.21934E-1,-1.3842883E0,1.1725279E0,6.066154E-1,5.3165966E-1,-4.4540545E-1,-9.327596E-1,9.468264E-1,-1.4005667E0,3.9461035E-1,8.8673246E-1,1.3303716E0,1.6011164E-1,8.686465E-1,-6.494254E-1,6.7802507E-1,-8.0552715E-1,2.9540107E-1,-1.1996009E0,2.9101405E-1,7.560056E-2,-3.855542E-2,-1.4083948E0,3.0744156E-2,5.8552336E-2,-4.4147495E-2,-8.99594E-1,9.527155E-1,1.3563262E0,5.141115E-1,6.7761177E-1,-3.2435787E-1,1.2639545E0,6.1873883E-1,5.5523306E-1,-1.102092E0,2.4859758E-1,1.0378823E0,-9.2631346E-1,6.958978E-1,-7.226944E-2,1.0743108E0,-7.022909E-2,5.202796E-1,-5.552277E-2,1.4766532E0,-1.419563E0,-3.001373E-2,-8.019101E-2,4.079323E-2,6.21804E-2,2.888316E-2,6.8215124E-2,8.1228325E-3,5.827685E-2,-6.670209E-2,5.886506E-2,1.3437996E-2,-7.577683E-2,2.7413983E-3,-1.2017868E-2,6.49204E-2,-3.5211608E-2,3.8249336E-2,-5.582255E-2,6.444543E-2,-7.379405E-2,6.2172115E-2,-1.9998007E-2,3.3318784E-2,5.985844E-2,6.7464804E-4,-2.9751146E-2,-7.226642E-2,-6.667583E-2,5.9138875E-2,-4.0881585E-2,2.4399467E-2,-5.4647096E-2,5.9301313E-2,5.7473045E-2,-3.752402E-2,8.7896876E-2,2.8304696E-2,-7.1406916E-2,9.639728E-3,-5.214888E-2,8.188744E-2],"categories":[],"categories_nodes":[],"categories_segments":[],"categories_sizes":[],"default_left":[0,0,0,0,0,0,0,0,0,0,0,0,0,0,0,0,0,0,0,0,0,0,0,0,0,0,0,0,0,0,0,0,0,0,0,0,0,0,0,0,0,0,0,0,0,0,0,0,0,0,0,0,0,0,0,0,0,0,0,0,0,0,0,0,0,0,0,0,0,0,0,0,0,0,0,0,0,0,0,0,0,0,0,0,0,0,0,0,0,0,0,0,0],"id":10,"left_children":[1,3,5,7,9,11,13,15,17,19,21,23,25,27,29,31,33,35,37,39,41,43,45,47,49,-1,-1,51,-1,-1,-1,53,55,57,59,61,63,65,67,69,71,73,75,77,79,81,83,-1,85,-1,87,89,91,-1,-1,-1,-1,-1,-1,-1,-1,-1,-1,-1,-1,-1,-1,-1,-1,-1,-1,-1,-1,-1,-1,-1,-1,-1,-1,-1,-1,-1,-1,-1,-1,-1,-1,-1,-1,-1,-1,-1,-1],"loss_changes":[1.1109729E3,3.4014963E2,1.6792725E1,6.549835E1,1.5632457E2,1.7345934E1,1.3176025E1,1.461438E1,5.8910202E1,4.446694E1,1.2261256E2,1.4080215E1,6.7439356E0,7.6848145E0,5.7289457E0,1.5893066E1,4.038727E0,4.7322754E1,3.0616318E1,1.6203377E1,3.4834564E1,5.6669632E1,4.325798E1,1.2969833E1,1.5484633E1,0E0,0E0,6.5895386E0,0E0,0E0,0E0,7.419582E0,1.2756416E1,1.8356628E0,1.1787755E1,1.8308498E1,4.4217022E1,6.6426086E0,3.859353E1,1.1832555E1,2.0349752E1,2.8676247E1,2.0092682E1,4.8377594E1,2.486957E1,4.356417E1,1.3017746E1,0E0,4.4019747E0,0E0,2.7082634E-1,6.183899E0,9.283807E0,0E0,0E0,0E0,0E0,0E0,0E0,0E0,0E0,0E0,0E0,0E0,0E0,0E0,0E0,0E0,0E0,0E0,0E0,0E0,0E0,0E0,0E0,0E0,0E0,0E0,0E0,0E0,0E0,0E0,0E0,0E0,0E0,0E0,0E0,0E0,0E0,0E0,0E0,0E0,0E0],"parents":[2147483647,0,0,1,1,2,2,3,3,4,4,5,5,6,6,7,7,8,8,9,9,10,10,11,11,12,12,13,13,14,14,15,15,16,16,17,17,18,18,19,19,20,20,21,21,22,22,23,23,24,24,27,27,31,31,32,32,33,33,34,34,35,35,36,36,37,37,38,38,39,39,40,40,41,41,42,42,43,43,44,44,45,45,46,46,48,48,50,50,51,51,52,52],"right_children":[2,4,6,8,10,12,14,16,18,20,22,24,26,28,30,32,34,36,38,40,42,44,46,48,50,-1,-1,52,-1,-1,-1,54,56,58,60,62,64,66,68,70,72,74,76,78,80,82,84,-1,86,-1,88,90,92,-1,-1,-1,-1,-1,-1,-1,-1,-1,-1,-1,-1,-1,-1,-1,-1,-1,-1,-1,-1,-1,-1,-1,-1,-1,-1,-1,-1,-1,-1,-1,-1,-1,-1,-1,-1,-1,-1,-1,-1],"split_conditions":[1E0,1E0,4E0,1E0,4E0,1E0,1E0,2E0,1E0,2E0,5E0,1E0,1E0,2E0,1E0,1E0,1E0,1E0,4E0,1E0,1E0,1E0,1E0,2E0,2E0,7.560056E-2,-3.855542E-2,1E0,3.0744156E-2,5.8552336E-2,-4.4147495E-2,4E0,4E0,1E0,1E0,1E0,1E0,2E0,1E0,1E0,1E0,1E0,1E0,1E0,2E0,1E0,2E0,-7.022909E-2,1E0,-5.552277E-2,1E0,1E0,1E0,-8.019101E-2,4.079323E-2,6.21804E-2,2.888316E-2,6.8215124E-2,8.1228325E-3,5.827685E-2,-6.670209E-2,5.886506E-2,1.3437996E-2,-7.577683E-2,2.7413983E-3,-1.2017868E-2,6.49204E-2,-3.5211608E-2,3.8249336E-2,-5.582255E-2,6.444543E-2,-7.379405E-2,6.2172115E-2,-1.9998007E-2,3.3318784E-2,5.985844E-2,6.7464804E-4,-2.9751146E-2,-7.226642E-2,-6.667583E-2,5.9138875E-2,-4.0881585E-2,2.4399467E-2,-5.4647096E-2,5.9301313E-2,5.7473045E-2,-3.752402E-2,8.7896876E-2,2.8304696E-2,-7.1406916E-2,9.639728E-3,-5.214888E-2,8.188744E-2],"split_indices":[604,717,447,266,545,219,198,649,62,171,866,846,643,586,76,380,65,287,447,366,860,189,522,812,668,0,0,749,0,0,0,89,545,64,390,427,455,171,586,721,111,544,47,685,624,211,171,0,285,0,73,303,65,0,0,0,0,0,0,0,0,0,0,0,0,0,0,0,0,0,0,0,0,0,0,0,0,0,0,0,0,0,0,0,0,0,0,0,0,0,0,0,0],"split_type":[0,0,0,0,0,0,0,0,0,0,0,0,0,0,0,0,0,0,0,0,0,0,0,0,0,0,0,0,0,0,0,0,0,0,0,0,0,0,0,0,0,0,0,0,0,0,0,0,0,0,0,0,0,0,0,0,0,0,0,0,0,0,0,0,0,0,0,0,0,0,0,0,0,0,0,0,0,0,0,0,0,0,0,0,0,0,0,0,0,0,0,0,0],"sum_hessian":[2.0449286E3,1.5642085E3,4.8072012E2,8.5281903E2,7.1138947E2,4.5793514E1,4.349266E2,3.4911533E2,5.0370374E2,2.5368048E2,4.5770898E2,4.1048615E1,4.744898E0,4.311935E2,3.733099E0,1.2656734E2,2.2254799E2,1.8687602E2,3.168277E2,2.7591988E1,2.260885E2,3.0793024E2,1.4977875E2,3.3716545E1,7.33207E0,3.6604958E0,1.0844022E0,4.2982523E2,1.368262E0,2.3737977E0,1.3593013E0,4.058547E0,1.2250879E2,2.1504846E2,7.4995337E0,9.016499E1,9.671102E1,1.2114341E2,1.956843E2,7.4743366E0,2.0117651E1,1.03851036E2,1.2223746E2,2.8535693E2,2.2573298E1,1.02365944E2,4.7412807E1,3.0289833E1,3.4267125E0,3.3892558E0,3.9428139E0,4.2634094E2,3.484283E0,2.9234834E0,1.1350638E0,6.769126E1,5.4817524E1,2.1347946E2,1.5689926E0,5.818142E0,1.6813917E0,3.9729267E1,5.043573E1,2.2628567E1,7.408245E1,2.578632E0,1.1856478E2,1.9098871E1,1.7658543E2,2.1206653E0,5.3536716E0,1.7672152E1,2.4454992E0,4.070435E1,6.3146687E1,1.05642075E2,1.6595387E1,1.7548816E2,1.0986877E2,4.031263E0,1.8542034E1,4.3729416E1,5.8636528E1,1.893626E0,4.551918E1,2.3557718E0,1.0709407E0,2.3012981E0,1.6415157E0,4.2419913E2,2.1418276E0,2.4007454E0,1.0835377E0],"tree_param":{"num_deleted":"0","num_feature":"954","num_nodes":"93","size_leaf_vector":"1"}},{"base_weights":[1.4837589E-3,3.97291E-1,-1.3221262E0,8.082421E-1,-1.0129955E-1,4.9554907E-2,-1.3304039E0,5.4364103E-1,1.137032E0,-3.932489E-1,6.6768163E-1,-1.3467385E0,-1.6329087E-1,9.000928E-1,1.700744E-1,1.2442541E0,7.582336E-1,2.4572173E-1,-7.277442E-1,-4.8950785E-1,8.427385E-1,-1.3534591E0,2.5628505E-2,-5.810384E-2,6.0274303E-2,-1.628761E-1,9.884785E-1,-3.8691148E-1,7.3366165E-1,1.2867615E0,6.9167864E-1,8.721505E-1,-5.991199E-1,9.798463E-1,-1.9033574E-2,4.8880023E-1,-8.765327E-1,-9.5487803E-1,1.0413257E0,1.1942103E0,4.0461838E-1,-1.3612413E0,1.6389903E-2,-7.480692E-2,3.6932275E-2,5.562836E-2,2.035652E-2,1.31219765E-2,-4.7935713E-2,-6.0454674E-2,4.2555705E-2,1.33176595E-2,6.511288E-2,-7.202226E-2,4.6197373E-2,-5.6730837E-2,4.709148E-2,-8.147364E-2,5.556896E-2,5.6662213E-2,-3.374041E-2,-3.547524E-2,2.392489E-2,-6.947215E-2,4.3333083E-2,-4.926655E-2,4.2341035E-2,2.152858E-2,-8.697296E-2,7.091695E-3,6.897812E-2,6.896546E-2,2.253205E-2,4.2799525E-2,-3.1925343E-2,-6.857644E-2,-3.6905704E-3],"categories":[],"categories_nodes":[],"categories_segments":[],"categories_sizes":[],"default_left":[0,0,0,0,0,0,0,0,0,0,0,0,0,0,0,0,0,0,0,0,0,0,0,0,0,0,0,0,0,0,0,0,0,0,0,0,0,0,0,0,0,0,0,0,0,0,0,0,0,0,0,0,0,0,0,0,0,0,0,0,0,0,0,0,0,0,0,0,0,0,0,0,0,0,0,0,0],"id":11,"left_children":[1,3,5,7,9,-1,11,13,15,17,19,21,23,25,27,29,31,33,35,37,39,41,-1,-1,-1,43,45,47,49,51,53,55,57,59,61,63,65,67,69,71,73,75,-1,-1,-1,-1,-1,-1,-1,-1,-1,-1,-1,-1,-1,-1,-1,-1,-1,-1,-1,-1,-1,-1,-1,-1,-1,-1,-1,-1,-1,-1,-1,-1,-1,-1,-1],"loss_changes":[1.0598503E3,3.1917163E2,1.0235901E1,7.366101E1,1.5843019E2,0E0,8.634705E0,6.3096664E1,1.4482544E1,1.09455894E2,3.9761017E1,6.4157715E0,1.1720878E1,2.297548E1,7.347609E1,6.0262756E0,1.3874401E1,3.4310104E1,6.1219803E1,1.9627987E1,2.5553925E1,6.4194946E0,0E0,0E0,0E0,2.4543467E1,1.5730133E1,4.4036503E1,2.7552872E1,3.958252E0,1.2817944E1,1.2264946E1,1.463897E1,1.2638996E1,4.522098E1,2.763506E1,5.701027E1,2.311934E1,1.8050313E0,1.222081E1,3.669658E1,5.920044E0,0E0,0E0,0E0,0E0,0E0,0E0,0E0,0E0,0E0,0E0,0E0,0E0,0E0,0E0,0E0,0E0,0E0,0E0,0E0,0E0,0E0,0E0,0E0,0E0,0E0,0E0,0E0,0E0,0E0,0E0,0E0,0E0,0E0,0E0,0E0],"parents":[2147483647,0,0,1,1,2,2,3,3,4,4,6,6,7,7,8,8,9,9,10,10,11,11,12,12,13,13,14,14,15,15,16,16,17,17,18,18,19,19,20,20,21,21,25,25,26,26,27,27,28,28,29,29,30,30,31,31,32,32,33,33,34,34,35,35,36,36,37,37,38,38,39,39,40,40,41,41],"right_children":[2,4,6,8,10,-1,12,14,16,18,20,22,24,26,28,30,32,34,36,38,40,42,-1,-1,-1,44,46,48,50,52,54,56,58,60,62,64,66,68,70,72,74,76,-1,-1,-1,-1,-1,-1,-1,-1,-1,-1,-1,-1,-1,-1,-1,-1,-1,-1,-1,-1,-1,-1,-1,-1,-1,-1,-1,-1,-1,-1,-1,-1,-1,-1,-1],"split_conditions":[1E0,1E0,1E0,2E0,2E0,4.9554907E-2,1E0,4E0,1E0,4E0,2E0,1E0,1E0,2E0,2E0,1E0,1E0,1E0,4E0,1E0,1E0,1E0,2.5628505E-2,-5.810384E-2,6.0274303E-2,4E0,5E0,1E0,2E0,1E0,4E0,2E0,1E0,2E0,2E0,1E0,4E0,1E0,1E0,1E0,1E0,1E0,1.6389903E-2,-7.480692E-2,3.6932275E-2,5.562836E-2,2.035652E-2,1.31219765E-2,-4.7935713E-2,-6.0454674E-2,4.2555705E-2,1.33176595E-2,6.511288E-2,-7.202226E-2,4.6197373E-2,-5.6730837E-2,4.709148E-2,-8.147364E-2,5.556896E-2,5.6662213E-2,-3.374041E-2,-3.547524E-2,2.392489E-2,-6.947215E-2,4.3333083E-2,-4.926655E-2,4.2341035E-2,2.152858E-2,-8.697296E-2,7.091695E-3,6.897812E-2,6.896546E-2,2.253205E-2,4.2799525E-2,-3.1925343E-2,-6.857644E-2,-3.6905704E-3],"split_indices":[604,717,434,649,649,0,342,545,361,545,813,223,799,112,813,5,635,417,434,524,212,303,0,0,0,494,128,287,593,773,866,112,66,351,99,719,49,793,257,111,495,749,0,0,0,0,0,0,0,0,0,0,0,0,0,0,0,0,0,0,0,0,0,0,0,0,0,0,0,0,0,0,0,0,0,0,0],"split_type":[0,0,0,0,0,0,0,0,0,0,0,0,0,0,0,0,0,0,0,0,0,0,0,0,0,0,0,0,0,0,0,0,0,0,0,0,0,0,0,0,0,0,0,0,0,0,0,0,0,0,0,0,0,0,0,0,0,0,0,0,0,0,0,0,0,0,0,0,0,0,0,0,0,0,0,0,0],"sum_hessian":[2.0210203E3,1.5563231E3,4.6469708E2,8.528014E2,7.035217E2,1.2336094E0,4.6346347E2,4.7399603E2,3.788054E2,5.102791E2,1.9324258E2,4.5691473E2,6.5487514E0,2.4183304E2,2.32163E2,2.9345557E2,8.534982E1,1.7542961E2,3.348495E2,2.5156004E1,1.680866E2,4.555402E2,1.3745129E0,3.8733838E0,2.6753674E0,1.8500032E1,2.23333E2,1.16923004E2,1.1523998E2,2.7126E2,2.2195574E1,7.907118E1,6.2786417E0,4.5782112E1,1.296475E2,3.6241512E1,2.98608E2,1.957997E1,5.576033E0,9.230848E1,7.577811E1,4.5363077E2,1.9094301E0,7.196921E0,1.1303112E1,1.8329495E2,4.0038048E1,5.50023E1,6.1920708E1,6.039962E0,1.0920002E2,4.3298826E0,2.669301E2,1.6694194E0,2.0526154E1,2.1405203E0,7.6930664E1,3.9479098E0,2.3307319E0,4.2186268E1,3.5958443E0,5.41175E1,7.553001E1,5.6214976E0,3.0620012E1,2.8127863E2,1.7329367E1,7.242333E0,1.2337637E1,1.9116386E0,3.6643946E0,7.322532E1,1.9083158E1,5.3016617E1,2.276149E1,4.4996988E2,3.6608894E0],"tree_param":{"num_deleted":"0","num_feature":"954","num_nodes":"77","size_leaf_vector":"1"}},{"base_weights":[1.9069462E-3,-1.1849127E0,4.08131E-1,6.485988E-2,-1.2152895E0,8.1779194E-1,-1.0045623E-1,-1.3094492E0,-7.241556E-1,1.0643694E0,5.505423E-1,5.617172E-1,-4.614084E-1,-1.3270719E0,-1.22603744E-1,-9.4761145E-1,3.4381333E-1,1.0936623E0,-5.2034074E-1,1.1179487E0,2.651112E-1,2.4270268E-1,1.2286856E0,-7.730411E-1,2.3237713E-1,-1.3354847E0,3.133901E-2,5.0700266E-2,-5.538067E-2,-1.1264594E0,1.416827E-1,-5.9904523E-2,8.2466805E-1,1.1797543E0,6.1117715E-1,-6.892057E-2,4.247091E-2,1.1867963E0,-8.076883E-1,7.3370534E-1,-1.4885408E-1,2.7854197E-2,1.2902871E0,1.2789837E0,-4.4105086E-2,-8.9001215E-1,6.787474E-1,-1.1777513E-1,1.0100895E0,1.7678102E-2,-6.721581E-2,-7.527268E-2,-2.9436423E-2,-5.9932377E-2,4.6367E-2,6.1754405E-2,-5.3753085E-2,6.667205E-2,5.255587E-2,5.6283742E-2,3.3757284E-3,-2.1735214E-2,6.137977E-2,-7.954034E-2,4.7508348E-2,4.3906998E-2,-2.2900946E-2,1.1123213E-2,-4.8212547E-2,6.160451E-2,-1.1376627E-2,-1.51613355E-2,7.352254E-2,6.962048E-2,3.3903047E-2,-4.7952753E-2,7.931772E-2,-6.3812956E-2,5.6465603E-2,-3.3833012E-2,2.0995345E-2,5.6868035E-2,-6.1331213E-2],"categories":[],"categories_nodes":[],"categories_segments":[],"categories_sizes":[],"default_left":[0,0,0,0,0,0,0,0,0,0,0,0,0,0,0,0,0,0,0,0,0,0,0,0,0,0,0,0,0,0,0,0,0,0,0,0,0,0,0,0,0,0,0,0,0,0,0,0,0,0,0,0,0,0,0,0,0,0,0,0,0,0,0,0,0,0,0,0,0,0,0,0,0,0,0,0,0,0,0,0,0,0,0],"id":12,"left_children":[1,3,5,-1,7,9,11,13,15,17,19,21,23,25,27,29,31,33,35,37,39,41,43,45,47,49,-1,-1,-1,51,53,-1,55,57,59,-1,-1,61,63,65,67,69,71,73,-1,75,77,79,81,-1,-1,-1,-1,-1,-1,-1,-1,-1,-1,-1,-1,-1,-1,-1,-1,-1,-1,-1,-1,-1,-1,-1,-1,-1,-1,-1,-1,-1,-1,-1,-1,-1,-1],"loss_changes":[9.6121454E2,3.99093E1,3.095503E2,0E0,2.2302551E1,5.3634094E1,1.5885625E2,8.635437E0,2.0162193E1,2.0384888E1,6.3986237E1,4.9607018E1,9.314895E1,7.6486206E0,9.247195E0,1.3603012E1,1.2195723E1,1.6702087E1,1.1073214E1,1.8528824E1,5.158905E1,3.595434E1,9.158958E0,5.103186E1,3.6623074E1,6.6348877E0,0E0,0E0,0E0,1.1216141E1,1.2294995E1,0E0,1.0773798E1,5.6139526E0,1.826941E1,0E0,0E0,9.025452E0,8.628399E0,2.1857346E1,4.3128555E1,4.140354E1,8.2524185E0,4.119423E0,0E0,4.858142E1,2.1444656E1,2.8329655E1,1.3271774E1,0E0,0E0,0E0,0E0,0E0,0E0,0E0,0E0,0E0,0E0,0E0,0E0,0E0,0E0,0E0,0E0,0E0,0E0,0E0,0E0,0E0,0E0,0E0,0E0,0E0,0E0,0E0,0E0,0E0,0E0,0E0,0E0,0E0,0E0],"parents":[2147483647,0,0,1,1,2,2,4,4,5,5,6,6,7,7,8,8,9,9,10,10,11,11,12,12,13,13,14,14,15,15,16,16,17,17,18,18,19,19,20,20,21,21,22,22,23,23,24,24,25,25,29,29,30,30,32,32,33,33,34,34,37,37,38,38,39,39,40,40,41,41,42,42,43,43,45,45,46,46,47,47,48,48],"right_children":[2,4,6,-1,8,10,12,14,16,18,20,22,24,26,28,30,32,34,36,38,40,42,44,46,48,50,-1,-1,-1,52,54,-1,56,58,60,-1,-1,62,64,66,68,70,72,74,-1,76,78,80,82,-1,-1,-1,-1,-1,-1,-1,-1,-1,-1,-1,-1,-1,-1,-1,-1,-1,-1,-1,-1,-1,-1,-1,-1,-1,-1,-1,-1,-1,-1,-1,-1,-1,-1],"split_conditions":[2E0,0E0,1E0,6.485988E-2,1E0,4E0,4E0,1E0,4E0,1E0,1E0,1E0,5E0,1E0,4E0,1E0,1E0,5E0,1E0,1E0,1E0,6E0,1E0,1E0,1E0,1E0,3.133901E-2,5.0700266E-2,-5.538067E-2,1E0,3E0,-5.9904523E-2,2E0,1E0,4E0,-6.892057E-2,4.247091E-2,3E0,1E0,1E0,1E0,3E0,1E0,1E0,-4.4105086E-2,1E0,2E0,1E0,1E0,1.7678102E-2,-6.721581E-2,-7.527268E-2,-2.9436423E-2,-5.9932377E-2,4.6367E-2,6.1754405E-2,-5.3753085E-2,6.667205E-2,5.255587E-2,5.6283742E-2,3.3757284E-3,-2.1735214E-2,6.137977E-2,-7.954034E-2,4.7508348E-2,4.3906998E-2,-2.2900946E-2,1.1123213E-2,-4.8212547E-2,6.160451E-2,-1.1376627E-2,-1.51613355E-2,7.352254E-2,6.962048E-2,3.3903047E-2,-4.7952753E-2,7.931772E-2,-6.3812956E-2,5.6465603E-2,-3.3833012E-2,2.0995345E-2,5.6868035E-2,-6.1331213E-2],"split_indices":[112,112,717,0,603,545,545,342,208,604,715,522,866,223,447,524,715,128,645,584,417,866,604,189,522,60,0,0,0,211,406,0,351,417,447,0,0,866,92,66,361,545,859,515,0,687,624,62,712,0,0,0,0,0,0,0,0,0,0,0,0,0,0,0,0,0,0,0,0,0,0,0,0,0,0,0,0,0,0,0,0,0,0],"split_type":[0,0,0,0,0,0,0,0,0,0,0,0,0,0,0,0,0,0,0,0,0,0,0,0,0,0,0,0,0,0,0,0,0,0,0,0,0,0,0,0,0,0,0,0,0,0,0,0,0,0,0,0,0,0,0,0,0,0,0,0,0,0,0,0,0,0,0,0,0,0,0,0,0,0,0,0,0,0,0,0,0,0,0],"sum_hessian":[1.9917435E3,5.074032E2,1.4843403E3,5.630472E0,5.0177274E2,8.2179016E2,6.625501E2,4.1965146E2,8.2121284E1,4.258748E2,3.9591537E2,2.3354723E2,4.290029E2,4.1339502E2,6.2564144E0,6.8005E1,1.4116289E1,4.1844977E2,7.425038E0,1.3153036E2,2.64385E2,1.5890569E2,7.464154E1,2.9595322E2,1.330497E2,4.119378E2,1.4572287E0,2.8910158E0,3.3653986E0,5.838485E1,9.620148E0,3.001173E0,1.1115116E1,3.5386325E2,6.458652E1,4.5613275E0,2.8637104E0,1.2736052E2,4.169854E0,1.23647736E2,1.4073727E2,1.3271402E2,2.6191652E1,7.32892E1,1.3523415E0,2.7424423E2,2.1708984E1,9.232875E1,4.0720943E1,1.939606E0,4.099982E2,3.3191643E1,2.5193207E1,3.360861E0,6.2592864E0,9.428115E0,1.687001E0,1.5696538E2,1.9689786E2,3.26333E1,3.1953218E1,2.8889532E0,1.24471565E2,2.9504628E0,1.2193913E0,1.10516495E2,1.3131239E1,9.72008E1,4.3536472E1,2.255151E1,1.1016251E2,2.5910692E0,2.3600584E1,6.054419E1,1.2745012E1,2.6740158E2,6.842628E0,3.7228608E0,1.7986124E1,4.5145008E1,4.7183746E1,3.899367E1,1.7272733E0],"tree_param":{"num_deleted":"0","num_feature":"954","num_nodes":"83","size_leaf_vector":"1"}},{"base_weights":[-5.2741874E-4,3.6840948E-1,-1.238596E0,7.516115E-1,-1.0639677E-1,-1.2876215E0,-2.927061E-1,4.0559787E-1,9.6711844E-1,-3.8746172E-1,6.3141984E-1,4.9989328E-2,-1.2965709E0,-8.7118864E-1,1.1232548E0,8.4134966E-1,-8.0612294E-2,1.0345755E0,1.7516236E-1,2.0450787E-1,-7.100328E-1,7.6564324E-1,-7.104173E-1,-1.3072644E0,7.024618E-2,-6.313297E-2,4.8511356E-1,1.5066631E-2,6.520719E-2,2.7406695E-1,1.0456302E0,-1.190974E0,2.2689992E-1,1.1172811E0,4.5796213E-1,9.8365265E-1,-3.432271E-1,-1.6933253E-1,6.793696E-1,-8.063598E-1,1.0970886E0,8.678489E-1,-8.7416583E-1,-1.0854815E0,5.883492E-2,-1.3155512E0,1.0644589E-2,7.647087E-2,-4.9685847E-2,-3.807417E-2,5.7843417E-2,-8.515142E-2,2.9552234E-2,5.5224437E-2,-9.621089E-3,-7.9448834E-2,3.693388E-2,-2.9567305E-2,2.845867E-2,5.706289E-2,2.8921778E-3,-4.944875E-3,5.2684624E-2,5.8020838E-2,-1.02339005E-2,5.187672E-3,-9.641359E-2,-3.6378954E-2,1.8713932E-2,4.671033E-2,-2.2143658E-2,-6.36126E-2,-2.2375423E-2,8.697774E-3,6.89096E-2,4.807496E-2,-1.9732056E-2,3.532688E-2,-8.141617E-2,-7.616728E-2,1.0283636E-2,-6.7164324E-2,-3.7139043E-2],"categories":[],"categories_nodes":[],"categories_segments":[],"categories_sizes":[],"default_left":[0,0,0,0,0,0,0,0,0,0,0,0,0,0,0,0,0,0,0,0,0,0,0,0,0,0,0,0,0,0,0,0,0,0,0,0,0,0,0,0,0,0,0,0,0,0,0,0,0,0,0,0,0,0,0,0,0,0,0,0,0,0,0,0,0,0,0,0,0,0,0,0,0,0,0,0,0,0,0,0,0,0,0],"id":13,"left_children":[1,3,5,7,9,11,13,15,17,19,21,-1,23,25,27,29,31,33,35,37,39,41,43,45,47,-1,49,-1,-1,51,53,55,57,59,61,63,65,67,69,71,73,75,77,79,-1,81,-1,-1,-1,-1,-1,-1,-1,-1,-1,-1,-1,-1,-1,-1,-1,-1,-1,-1,-1,-1,-1,-1,-1,-1,-1,-1,-1,-1,-1,-1,-1,-1,-1,-1,-1,-1,-1],"loss_changes":[8.981021E2,2.7569366E2,2.0555786E1,6.212506E1,1.4072319E2,1.0075623E1,2.0258366E1,6.8604515E1,2.73797E1,9.393438E1,3.4268692E1,0E0,6.342102E0,9.784068E0,6.8697834E-1,1.9493141E1,5.2786926E1,2.215033E1,1.781371E1,3.1007017E1,5.626616E1,2.936818E1,1.3696145E1,5.6257935E0,8.146879E0,0E0,4.725855E0,0E0,0E0,3.0176653E1,9.331345E0,2.6915524E1,3.430479E1,1.0473145E1,2.044122E1,3.7137642E0,1.8725878E1,3.0062593E1,2.239241E1,5.0025208E1,4.04817E0,1.9437347E1,1.3683638E1,8.882353E0,0E0,5.7092285E0,0E0,0E0,0E0,0E0,0E0,0E0,0E0,0E0,0E0,0E0,0E0,0E0,0E0,0E0,0E0,0E0,0E0,0E0,0E0,0E0,0E0,0E0,0E0,0E0,0E0,0E0,0E0,0E0,0E0,0E0,0E0,0E0,0E0,0E0,0E0,0E0,0E0],"parents":[2147483647,0,0,1,1,2,2,3,3,4,4,5,5,6,6,7,7,8,8,9,9,10,10,12,12,13,13,14,14,15,15,16,16,17,17,18,18,19,19,20,20,21,21,22,22,23,23,24,24,26,26,29,29,30,30,31,31,32,32,33,33,34,34,35,35,36,36,37,37,38,38,39,39,40,40,41,41,42,42,43,43,45,45],"right_children":[2,4,6,8,10,12,14,16,18,20,22,-1,24,26,28,30,32,34,36,38,40,42,44,46,48,-1,50,-1,-1,52,54,56,58,60,62,64,66,68,70,72,74,76,78,80,-1,82,-1,-1,-1,-1,-1,-1,-1,-1,-1,-1,-1,-1,-1,-1,-1,-1,-1,-1,-1,-1,-1,-1,-1,-1,-1,-1,-1,-1,-1,-1,-1,-1,-1,-1,-1,-1,-1],"split_conditions":[1E0,1E0,1E0,1E0,2E0,1E0,2E0,1E0,1E0,4E0,1E0,4.9989328E-2,1E0,4E0,3E0,4E0,3E0,1E0,4E0,4E0,1E0,1E0,6E0,1E0,3E0,-6.313297E-2,1E0,1.5066631E-2,6.520719E-2,3E0,1E0,1E0,2E0,1E0,1E0,2E0,1E0,1E0,1E0,4E0,1E0,1E0,4E0,1E0,5.883492E-2,1E0,1.0644589E-2,7.647087E-2,-4.9685847E-2,-3.807417E-2,5.7843417E-2,-8.515142E-2,2.9552234E-2,5.5224437E-2,-9.621089E-3,-7.9448834E-2,3.693388E-2,-2.9567305E-2,2.845867E-2,5.706289E-2,2.8921778E-3,-4.944875E-3,5.2684624E-2,5.8020838E-2,-1.02339005E-2,5.187672E-3,-9.641359E-2,-3.6378954E-2,1.8713932E-2,4.671033E-2,-2.2143658E-2,-6.36126E-2,-2.2375423E-2,8.697774E-3,6.89096E-2,4.807496E-2,-1.9732056E-2,3.532688E-2,-8.141617E-2,-7.616728E-2,1.0283636E-2,-6.7164324E-2,-3.7139043E-2],"split_indices":[604,717,718,62,649,434,112,287,252,545,589,0,886,359,294,866,460,399,447,29,505,243,241,50,16,0,62,0,0,89,333,145,903,151,787,782,630,859,557,866,62,12,434,219,0,487,0,0,0,0,0,0,0,0,0,0,0,0,0,0,0,0,0,0,0,0,0,0,0,0,0,0,0,0,0,0,0,0,0,0,0,0,0],"split_type":[0,0,0,0,0,0,0,0,0,0,0,0,0,0,0,0,0,0,0,0,0,0,0,0,0,0,0,0,0,0,0,0,0,0,0,0,0,0,0,0,0,0,0,0,0,0,0,0,0,0,0,0,0,0,0,0,0,0,0,0,0,0,0,0,0,0,0,0,0,0,0,0,0,0,0,0,0,0,0,0,0,0,0],"sum_hessian":[1.9642067E3,1.5138046E3,4.504021E2,8.373894E2,6.764151E2,4.278646E2,2.2537535E1,3.224893E2,5.1490015E2,4.9016556E2,1.8624954E2,1.2360115E0,4.2662857E2,1.6273733E1,6.263802E0,1.6968425E2,1.5280502E2,4.742023E2,4.069783E1,1.7301724E2,3.1714832E2,1.6970357E2,1.6545977E1,4.2335992E2,3.2686334E0,1.2682278E1,3.591455E0,1.6107465E0,4.653055E0,4.5545895E1,1.2413836E2,3.2517666E1,1.2028736E2,4.138979E2,6.0304413E1,1.5549308E1,2.5148523E1,9.716578E1,7.585147E1,3.016243E2,1.5524025E1,1.6019003E2,9.513524E0,1.4157055E1,2.3889215E0,4.2119846E2,2.1614628E0,1.1938529E0,2.0747805E0,1.2108564E0,2.3805985E0,5.689001E0,3.9856895E1,1.186075E2,5.5308614E0,2.710387E1,5.4137945E0,3.526188E1,8.502548E1,4.0466254E2,9.235356E0,3.1600136E1,2.8704275E1,1.35563E1,1.9930079E0,2.0345625E1,4.8028975E0,4.7770626E1,4.939515E1,6.1951244E1,1.3900227E1,1.3013124E2,1.7149304E2,4.0016346E0,1.152239E1,1.4934982E2,1.0840218E1,3.093253E0,6.420271E0,1.0437571E1,3.7194846E0,4.0046158E2,2.0736883E1],"tree_param":{"num_deleted":"0","num_feature":"954","num_nodes":"83","size_leaf_vector":"1"}},{"base_weights":[2.0193372E-2,3.7198585E-1,-1.2313414E0,6.2882885E-2,9.0831524E-1,-1.2746642E0,-3.1221995E-1,6.5551883E-1,-2.715829E-1,1.0437267E0,4.9101254E-1,-1.2913039E0,4.6040168E-1,-9.9993783E-1,7.904508E-1,-5.9316736E-1,7.5230324E-1,-5.368271E-1,3.37887E-1,1.1048658E0,3.8794175E-1,6.0354215E-1,-1.3278517E0,4.877033E-2,-1.3006384E0,5.795915E-2,-3.9440818E-2,-6.2539995E-2,4.24322E-2,-4.0469173E-2,6.2878035E-2,-1.0361642E0,7.150523E-1,1.0691198E0,4.0555698E-1,-7.1306914E-1,5.220379E-1,-2.6663578E-1,6.8154424E-1,9.5068455E-1,1.2607962E0,8.4880984E-1,-7.186284E-1,-1.1747451E0,6.844652E-1,-8.5377656E-2,3.5363805E-2,-1.3092554E0,1.7501134E-2,4.9485773E-2,-6.132665E-2,-4.451216E-2,5.930875E-2,6.1639845E-2,2.6159009E-2,5.1691473E-2,2.2729828E-3,-5.3510603E-2,-9.520168E-3,4.5529302E-2,-2.5847683E-2,1.7261706E-2,-5.5315554E-2,-9.472451E-3,4.4733386E-2,-1.7729277E-2,5.0363746E-2,6.728204E-2,5.247608E-2,5.9246898E-2,-2.1017304E-2,3.625396E-2,-8.304418E-2,-8.533782E-2,3.5868373E-2,3.6619734E-2,-6.838288E-2,-6.604539E-2,4.295081E-4],"categories":[],"categories_nodes":[],"categories_segments":[],"categories_sizes":[],"default_left":[0,0,0,0,0,0,0,0,0,0,0,0,0,0,0,0,0,0,0,0,0,0,0,0,0,0,0,0,0,0,0,0,0,0,0,0,0,0,0,0,0,0,0,0,0,0,0,0,0,0,0,0,0,0,0,0,0,0,0,0,0,0,0,0,0,0,0,0,0,0,0,0,0,0,0,0,0,0,0],"id":14,"left_children":[1,3,5,7,9,11,13,15,17,19,21,23,25,27,29,31,33,35,37,39,41,43,45,-1,47,-1,-1,-1,-1,-1,-1,49,51,53,55,57,59,61,63,65,67,69,71,73,75,-1,-1,77,-1,-1,-1,-1,-1,-1,-1,-1,-1,-1,-1,-1,-1,-1,-1,-1,-1,-1,-1,-1,-1,-1,-1,-1,-1,-1,-1,-1,-1,-1,-1],"loss_changes":[8.573453E2,2.5192465E2,1.6615051E1,1.915201E2,3.0885895E1,1.23654175E1,1.6379196E1,4.25692E1,1.00049515E2,1.6356018E1,2.9050575E1,9.818848E0,4.938625E0,7.1374464E0,7.33605E0,1.5595184E1,3.515007E1,8.0771965E1,3.9226883E1,7.994568E0,1.9602654E1,1.960736E1,7.663144E0,0E0,6.1884155E0,0E0,0E0,0E0,0E0,0E0,0E0,8.755884E0,6.4071245E0,1.4425339E1,3.530596E1,6.882071E1,2.5521763E1,3.57485E1,2.2464874E1,1.48598175E1,1.9406738E0,1.1909691E1,1.6836756E1,7.3199024E0,1.3356247E1,0E0,0E0,6.1688843E0,0E0,0E0,0E0,0E0,0E0,0E0,0E0,0E0,0E0,0E0,0E0,0E0,0E0,0E0,0E0,0E0,0E0,0E0,0E0,0E0,0E0,0E0,0E0,0E0,0E0,0E0,0E0,0E0,0E0,0E0,0E0],"parents":[2147483647,0,0,1,1,2,2,3,3,4,4,5,5,6,6,7,7,8,8,9,9,10,10,11,11,12,12,13,13,14,14,15,15,16,16,17,17,18,18,19,19,20,20,21,21,22,22,24,24,31,31,32,32,33,33,34,34,35,35,36,36,37,37,38,38,39,39,40,40,41,41,42,42,43,43,44,44,47,47],"right_children":[2,4,6,8,10,12,14,16,18,20,22,24,26,28,30,32,34,36,38,40,42,44,46,-1,48,-1,-1,-1,-1,-1,-1,50,52,54,56,58,60,62,64,66,68,70,72,74,76,-1,-1,78,-1,-1,-1,-1,-1,-1,-1,-1,-1,-1,-1,-1,-1,-1,-1,-1,-1,-1,-1,-1,-1,-1,-1,-1,-1,-1,-1,-1,-1,-1,-1],"split_conditions":[1E0,2E0,1E0,1E0,1E0,1E0,1E0,2E0,1E0,1E0,1E0,1E0,1E0,5E0,1E0,4E0,1E0,3E0,4E0,1E0,5E0,3E0,1E0,4.877033E-2,1E0,5.795915E-2,-3.9440818E-2,-6.2539995E-2,4.24322E-2,-4.0469173E-2,6.2878035E-2,2E0,1E0,1E0,1E0,1E0,1E0,1E0,1E0,2E0,1E0,5E0,2E0,3E0,4E0,-8.5377656E-2,3.5363805E-2,1E0,1.7501134E-2,4.9485773E-2,-6.132665E-2,-4.451216E-2,5.930875E-2,6.1639845E-2,2.6159009E-2,5.1691473E-2,2.2729828E-3,-5.3510603E-2,-9.520168E-3,4.5529302E-2,-2.5847683E-2,1.7261706E-2,-5.5315554E-2,-9.472451E-3,4.4733386E-2,-1.7729277E-2,5.0363746E-2,6.728204E-2,5.247608E-2,5.9246898E-2,-2.1017304E-2,3.625396E-2,-8.304418E-2,-8.533782E-2,3.5868373E-2,3.6619734E-2,-6.838288E-2,-6.604539E-2,4.295081E-4],"split_indices":[604,649,718,417,361,198,62,112,516,5,243,434,76,822,227,208,287,903,866,516,421,241,26,0,303,0,0,0,0,0,0,494,852,119,146,28,361,335,588,822,339,262,207,105,725,0,0,749,0,0,0,0,0,0,0,0,0,0,0,0,0,0,0,0,0,0,0,0,0,0,0,0,0,0,0,0,0,0,0],"split_type":[0,0,0,0,0,0,0,0,0,0,0,0,0,0,0,0,0,0,0,0,0,0,0,0,0,0,0,0,0,0,0,0,0,0,0,0,0,0,0,0,0,0,0,0,0,0,0,0,0,0,0,0,0,0,0,0,0,0,0,0,0,0,0,0,0,0,0,0,0,0,0,0,0,0,0,0,0,0,0],"sum_hessian":[1.9452301E3,1.518968E3,4.2626218E2,9.6431885E2,5.546491E2,4.0670532E2,1.955684E1,3.4754614E2,6.1677277E2,4.176302E2,1.370189E2,4.030953E2,3.6100385E0,1.2102115E1,7.4547257E0,2.4631275E1,3.2291486E2,4.2982852E2,1.8694423E2,3.813884E2,3.624179E1,1.2966496E2,7.353942E0,1.2287347E0,4.0186655E2,2.3612738E0,1.2487646E0,1.0940769E1,1.1613455E0,1.5191033E0,5.9356227E0,1.8555773E1,6.0755024E0,1.6765126E2,1.552636E2,3.6877466E2,6.1053856E1,6.7837074E1,1.1910715E2,1.9533815E2,1.8605025E2,2.5750198E1,1.0491593E1,5.055411E0,1.2460954E2,6.3332787E0,1.0206633E0,3.9998538E2,1.8811864E0,1.233208E0,1.7322565E1,1.176635E0,4.898867E0,1.2801361E2,3.963765E1,5.5886246E1,9.937735E1,2.1845471E2,1.5031995E2,4.4526154E1,1.6527702E1,3.958234E1,2.8254734E1,2.3436775E1,9.567037E1,7.898202E0,1.8743994E2,1.28912E2,5.713825E1,2.0410864E1,5.339334E0,4.2343216E0,6.257272E0,4.022386E0,1.0330247E0,1.2239401E2,2.2155313E0,3.964774E2,3.50799E0],"tree_param":{"num_deleted":"0","num_feature":"954","num_nodes":"79","size_leaf_vector":"1"}},{"base_weights":[-7.1315095E-3,3.321272E-1,-1.193229E0,2.860158E-2,8.649379E-1,-1.2421759E0,-2.893622E-1,4.5204753E-1,-3.6751768E-1,1.0722344E0,5.695668E-1,-1.2584333E0,4.4874504E-1,-8.575513E-1,5.8682293E-2,1.1744197E-2,7.194039E-1,1.6973726E-1,-6.5464777E-1,-3.8710053E-3,1.1205359E0,7.229869E-1,-5.7818526E-1,-1.2875538E0,-6.3178605E-1,5.646425E-2,-3.857694E-2,-6.1262112E-2,4.6184954E-1,5.7274073E-1,-5.595776E-1,1.1067932E0,3.8479468E-1,5.0510174E-1,-3.07924E-1,-3.0900958E-1,-1.181919E0,-8.0840886E-1,6.265769E-2,6.4401174E-1,1.2161708E0,8.338091E-1,-2.627658E-1,1.7623454E-1,-9.046843E-2,-1.2998544E0,6.768756E-2,-1.0505162E0,9.451428E-1,-3.6276564E-2,5.4782387E-2,7.1027614E-3,5.0007623E-2,-5.7404656E-2,1.8501146E-2,5.8681E-2,-4.7272887E-2,2.4919376E-2,-5.3663876E-2,-4.615999E-2,3.3358097E-2,-2.9217763E-2,2.7827514E-2,-4.535812E-2,9.796771E-3,-6.849211E-2,-2.131999E-2,4.819314E-2,-7.219135E-2,4.061696E-2,-8.62101E-2,6.1986025E-2,1.3755964E-2,5.4708447E-2,2.6912162E-2,-7.343095E-2,3.7679214E-2,4.964408E-2,-6.0352303E-2,-6.550556E-2,5.4135886E-3,-4.847673E-2,7.695369E-2,-6.3618146E-2,4.5682665E-2,-3.834671E-2,9.314583E-2],"categories":[],"categories_nodes":[],"categories_segments":[],"categories_sizes":[],"default_left":[0,0,0,0,0,0,0,0,0,0,0,0,0,0,0,0,0,0,0,0,0,0,0,0,0,0,0,0,0,0,0,0,0,0,0,0,0,0,0,0,0,0,0,0,0,0,0,0,0,0,0,0,0,0,0,0,0,0,0,0,0,0,0,0,0,0,0,0,0,0,0,0,0,0,0,0,0,0,0,0,0,0,0,0,0,0,0],"id":15,"left_children":[1,3,5,7,9,11,13,15,17,19,21,23,25,27,-1,29,31,33,35,37,39,41,43,45,47,-1,-1,-1,49,51,53,55,57,59,61,63,65,67,-1,69,71,73,75,77,-1,79,81,83,85,-1,-1,-1,-1,-1,-1,-1,-1,-1,-1,-1,-1,-1,-1,-1,-1,-1,-1,-1,-1,-1,-1,-1,-1,-1,-1,-1,-1,-1,-1,-1,-1,-1,-1,-1,-1,-1,-1],"loss_changes":[7.6512634E2,2.3908865E2,1.8350403E1,1.5833762E2,3.224289E1,1.1584717E1,2.0149324E1,5.369674E1,7.535467E1,1.6333405E1,3.975766E1,6.4369507E0,4.653695E0,8.892962E0,0E0,5.588977E1,3.6366776E1,2.7496954E1,5.760396E1,1.5669037E1,1.2918762E1,2.1795853E1,2.5302113E1,6.401184E0,1.3939598E1,0E0,0E0,0E0,4.1567297E0,1.6052118E1,4.769526E1,1.9077454E1,2.6012989E1,2.3914707E1,1.7297943E1,5.8618057E1,1.7247818E1,1.2027073E1,0E0,2.2281519E1,5.183441E0,1.3092613E1,2.6502066E1,2.1068148E1,0E0,5.5630493E0,8.141445E0,8.119905E0,8.720144E0,0E0,0E0,0E0,0E0,0E0,0E0,0E0,0E0,0E0,0E0,0E0,0E0,0E0,0E0,0E0,0E0,0E0,0E0,0E0,0E0,0E0,0E0,0E0,0E0,0E0,0E0,0E0,0E0,0E0,0E0,0E0,0E0,0E0,0E0,0E0,0E0,0E0,0E0],"parents":[2147483647,0,0,1,1,2,2,3,3,4,4,5,5,6,6,7,7,8,8,9,9,10,10,11,11,12,12,13,13,15,15,16,16,17,17,18,18,19,19,20,20,21,21,22,22,23,23,24,24,28,28,29,29,30,30,31,31,32,32,33,33,34,34,35,35,36,36,37,37,39,39,40,40,41,41,42,42,43,43,45,45,46,46,47,47,48,48],"right_children":[2,4,6,8,10,12,14,16,18,20,22,24,26,28,-1,30,32,34,36,38,40,42,44,46,48,-1,-1,-1,50,52,54,56,58,60,62,64,66,68,-1,70,72,74,76,78,-1,80,82,84,86,-1,-1,-1,-1,-1,-1,-1,-1,-1,-1,-1,-1,-1,-1,-1,-1,-1,-1,-1,-1,-1,-1,-1,-1,-1,-1,-1,-1,-1,-1,-1,-1,-1,-1,-1,-1,-1,-1],"split_conditions":[1E0,2E0,1E0,1E0,1E0,1E0,2E0,1E0,4E0,2E0,1E0,1E0,1E0,4E0,5.8682293E-2,1E0,1E0,1E0,1E0,1E0,3E0,1E0,1E0,1E0,1E0,5.646425E-2,-3.857694E-2,-6.1262112E-2,1E0,1E0,2E0,1E0,1E0,2E0,1E0,2E0,1E0,0E0,6.265769E-2,1E0,1E0,4E0,1E0,1E0,-9.046843E-2,1E0,1E0,4E0,1E0,-3.6276564E-2,5.4782387E-2,7.1027614E-3,5.0007623E-2,-5.7404656E-2,1.8501146E-2,5.8681E-2,-4.7272887E-2,2.4919376E-2,-5.3663876E-2,-4.615999E-2,3.3358097E-2,-2.9217763E-2,2.7827514E-2,-4.535812E-2,9.796771E-3,-6.849211E-2,-2.131999E-2,4.819314E-2,-7.219135E-2,4.061696E-2,-8.62101E-2,6.1986025E-2,1.3755964E-2,5.4708447E-2,2.6912162E-2,-7.343095E-2,3.7679214E-2,4.964408E-2,-6.0352303E-2,-6.550556E-2,5.4135886E-3,-4.847673E-2,7.695369E-2,-6.3618146E-2,4.5682665E-2,-3.834671E-2,9.314583E-2],"split_indices":[604,649,718,717,266,198,112,62,545,112,47,487,76,359,0,287,525,390,685,4,161,65,528,886,276,0,0,0,62,658,813,468,3,112,652,99,135,112,0,480,66,545,942,877,0,240,11,664,295,0,0,0,0,0,0,0,0,0,0,0,0,0,0,0,0,0,0,0,0,0,0,0,0,0,0,0,0,0,0,0,0,0,0,0,0,0,0],"split_type":[0,0,0,0,0,0,0,0,0,0,0,0,0,0,0,0,0,0,0,0,0,0,0,0,0,0,0,0,0,0,0,0,0,0,0,0,0,0,0,0,0,0,0,0,0,0,0,0,0,0,0,0,0,0,0,0,0,0,0,0,0,0,0,0,0,0,0,0,0,0,0,0,0,0,0,0,0,0,0,0,0,0,0,0,0,0,0],"sum_hessian":[1.8994513E3,1.4775488E3,4.2190237E2,9.4198376E2,5.355651E2,3.998738E2,2.2028585E1,4.552194E2,4.8676437E2,3.1315646E2,2.2240865E2,3.9631915E2,3.5546384E0,1.6164583E1,5.864002E0,1.7237793E2,2.828415E2,1.6968054E2,3.1708383E2,1.349187E1,2.9966458E2,1.9651108E2,2.589757E1,3.7771207E2,1.8607088E1,2.329867E0,1.2247714E0,1.2697426E1,3.4671576E0,8.697364E1,8.540429E1,1.30013E2,1.5282848E2,9.9655365E1,7.002517E1,1.92489E2,1.2459484E2,8.444192E0,5.047678E0,5.13809E1,2.4828368E2,1.7678981E2,1.9721266E1,1.6589218E1,9.3083515E0,3.743552E2,3.3568733E0,1.4966718E1,3.64037E0,1.1562536E0,2.310904E0,4.398455E1,4.298909E1,5.2152386E1,3.32519E1,1.2632756E2,3.6854365E0,1.4239334E2,1.0435135E1,9.676433E0,8.9978935E1,5.330422E1,1.6720953E1,8.774756E1,1.0474144E2,9.9125786E1,2.5469055E1,2.0921082E0,6.3520837E0,4.85846E1,2.796304E0,2.4191246E2,6.371218E0,9.2556305E1,8.4233505E1,8.816224E0,1.0905041E1,1.0608504E1,5.980713E0,3.717172E2,2.6379988E0,2.1689749E0,1.1878984E0,1.3764298E1,1.2024196E0,1.3277847E0,2.3125854E0],"tree_param":{"num_deleted":"0","num_feature":"954","num_nodes":"87","size_leaf_vector":"1"}},{"base_weights":[1.7226372E-2,3.5047406E-1,-1.2043618E0,7.7354395E-1,6.211247E-3,-1.2393442E0,-4.6581054E-1,-2.1038185E-1,8.560016E-1,-3.3300522E-1,5.8840597E-1,4.9174767E-2,-1.2491083E0,-6.090671E-2,6.633514E-1,2.3961368E-1,-1.144556E0,6.4537627E-1,1.1672447E0,-7.26865E-1,1.8511797E-1,-4.47211E-2,8.558974E-1,-1.2590834E0,2.0645155E-2,-3.916471E-2,1.0732106E0,-6.321414E-2,5.1204705E-1,-6.905793E-2,3.1087834E-2,1.1153481E0,4.454879E-1,7.586682E-1,1.249878E0,-8.523139E-1,1.1350313E0,-5.789248E-1,4.8742676E-1,5.7060254E-1,-8.21359E-1,9.0541804E-1,-1.0126549E0,-1.2898586E0,-5.96193E-1,6.1783534E-2,1.59891E-2,3.757465E-2,-6.0471684E-2,6.250585E-2,3.0645255E-2,3.714083E-2,3.3110988E-3,-2.718139E-2,5.3718347E-2,6.292606E-2,1.2867608E-3,3.5339892E-3,-5.284986E-2,-5.1992666E-2,6.832232E-2,1.894119E-2,-6.0093053E-2,3.9143458E-2,-6.407134E-3,-3.2114755E-2,4.3790314E-2,-6.390072E-2,5.941676E-4,1.2272692E-2,5.270634E-2,3.9684456E-2,-7.996272E-2,-6.4989366E-2,1.0195629E-2,-5.152542E-2,5.5307087E-2],"categories":[],"categories_nodes":[],"categories_segments":[],"categories_sizes":[],"default_left":[0,0,0,0,0,0,0,0,0,0,0,0,0,0,0,0,0,0,0,0,0,0,0,0,0,0,0,0,0,0,0,0,0,0,0,0,0,0,0,0,0,0,0,0,0,0,0,0,0,0,0,0,0,0,0,0,0,0,0,0,0,0,0,0,0,0,0,0,0,0,0,0,0,0,0,0,0],"id":16,"left_children":[1,3,5,7,9,11,13,15,17,19,21,-1,23,-1,25,27,29,31,33,35,37,39,41,43,-1,-1,45,-1,47,-1,-1,49,51,53,55,57,59,61,63,65,67,69,71,73,75,-1,-1,-1,-1,-1,-1,-1,-1,-1,-1,-1,-1,-1,-1,-1,-1,-1,-1,-1,-1,-1,-1,-1,-1,-1,-1,-1,-1,-1,-1,-1,-1],"loss_changes":[7.6166565E2,2.140885E2,9.783386E0,5.368521E1,1.6045197E2,9.525391E0,1.7575129E1,2.2048283E1,3.9149353E1,1.0489543E2,5.0692818E1,0E0,6.837036E0,0E0,5.9039893E0,1.5308681E1,7.9684277E0,3.381601E1,7.304138E0,6.913771E1,5.1675457E1,4.3375874E1,2.03777E1,6.963196E0,0E0,0E0,4.710083E-1,0E0,1.3690419E1,0E0,0E0,6.5691223E0,2.9036476E1,1.8535389E1,2.1023865E0,5.1840454E1,1.0909199E1,3.8362263E1,2.9192833E1,1.9325384E1,1.5273506E1,1.9901001E1,7.523003E0,5.6241455E0,1.49472475E1,0E0,0E0,0E0,0E0,0E0,0E0,0E0,0E0,0E0,0E0,0E0,0E0,0E0,0E0,0E0,0E0,0E0,0E0,0E0,0E0,0E0,0E0,0E0,0E0,0E0,0E0,0E0,0E0,0E0,0E0,0E0,0E0],"parents":[2147483647,0,0,1,1,2,2,3,3,4,4,5,5,6,6,7,7,8,8,9,9,10,10,12,12,14,14,15,15,16,16,17,17,18,18,19,19,20,20,21,21,22,22,23,23,26,26,28,28,31,31,32,32,33,33,34,34,35,35,36,36,37,37,38,38,39,39,40,40,41,41,42,42,43,43,44,44],"right_children":[2,4,6,8,10,12,14,16,18,20,22,-1,24,-1,26,28,30,32,34,36,38,40,42,44,-1,-1,46,-1,48,-1,-1,50,52,54,56,58,60,62,64,66,68,70,72,74,76,-1,-1,-1,-1,-1,-1,-1,-1,-1,-1,-1,-1,-1,-1,-1,-1,-1,-1,-1,-1,-1,-1,-1,-1,-1,-1,-1,-1,-1,-1,-1,-1],"split_conditions":[1E0,4E0,1E0,2E0,1E0,1E0,1E0,1E0,1E0,2E0,4E0,4.9174767E-2,1E0,-6.090671E-2,2E0,1E0,1E0,3E0,3E0,1E0,2E0,1E0,1E0,1E0,2.0645155E-2,-3.916471E-2,1E0,-6.321414E-2,1E0,-6.905793E-2,3.1087834E-2,1E0,5E0,1E0,1E0,4E0,1E0,4E0,1E0,2E0,1E0,1E0,2E0,2E0,1E0,6.1783534E-2,1.59891E-2,3.757465E-2,-6.0471684E-2,6.250585E-2,3.0645255E-2,3.714083E-2,3.3110988E-3,-2.718139E-2,5.3718347E-2,6.292606E-2,1.2867608E-3,3.5339892E-3,-5.284986E-2,-5.1992666E-2,6.832232E-2,1.894119E-2,-6.0093053E-2,3.9143458E-2,-6.407134E-3,-3.2114755E-2,4.3790314E-2,-6.390072E-2,5.941676E-4,1.2272692E-2,5.270634E-2,3.9684456E-2,-7.996272E-2,-6.4989366E-2,1.0195629E-2,-5.152542E-2,5.5307087E-2],"split_indices":[604,545,718,112,516,434,62,164,264,817,866,0,240,0,817,737,410,545,161,687,99,717,243,487,0,0,296,0,292,0,0,706,421,340,139,447,568,447,685,76,411,72,16,773,276,0,0,0,0,0,0,0,0,0,0,0,0,0,0,0,0,0,0,0,0,0,0,0,0,0,0,0,0,0,0,0,0],"split_type":[0,0,0,0,0,0,0,0,0,0,0,0,0,0,0,0,0,0,0,0,0,0,0,0,0,0,0,0,0,0,0,0,0,0,0,0,0,0,0,0,0,0,0,0,0,0,0,0,0,0,0,0,0,0,0,0,0,0,0,0,0,0,0,0,0,0,0,0,0,0,0,0,0,0,0,0,0],"sum_hessian":[1.8689573E3,1.4689443E3,4.0001303E2,6.584805E2,8.104638E2,3.8127536E2,1.8737694E1,5.079678E1,6.076837E2,5.123629E2,2.9810086E2,1.2313349E0,3.80044E2,1.1198023E1,7.539671E0,3.4784466E1,1.6012318E1,3.642565E2,2.4342723E2,2.9085892E2,2.21504E2,8.878587E1,2.0931499E2,3.7801767E2,2.0263531E0,1.4633781E0,6.076293E0,4.776478E0,3.0007986E1,1.4313094E1,1.6992227E0,1.07328636E2,2.5692786E2,4.2663063E1,2.0076416E2,2.7300677E2,1.785213E1,6.253659E1,1.589674E2,4.968565E1,3.9100227E1,2.0441306E2,4.9019337E0,3.6034268E2,1.7674994E1,4.4719524E0,1.6043403E0,2.6838413E1,3.1695738E0,8.345553E1,2.3873106E1,1.4348389E2,1.1344398E2,8.183429E0,3.4479637E1,1.993287E2,1.4354597E0,4.9671955E1,2.2333482E2,1.3808805E0,1.647125E1,2.4799646E1,3.7736946E1,1.0723042E2,5.1736988E1,9.766907E0,3.9918743E1,2.4912977E1,1.4187248E1,3.807741E1,1.6633565E2,1.1151049E0,3.786829E0,3.580924E2,2.2502728E0,1.4396639E1,3.278354E0],"tree_param":{"num_deleted":"0","num_feature":"954","num_nodes":"77","size_leaf_vector":"1"}},{"base_weights":[1.741631E-2,3.3292124E-1,-1.1373461E0,6.894674E-1,-9.046796E-2,-1.185697E0,-2.056859E-1,4.6889475E-1,9.9388677E-1,-3.6127433E-1,4.8556104E-1,-1.2025894E0,5.490016E-1,-7.769737E-1,1.0338893E0,7.8408283E-1,1.01364374E-1,-3.3187915E-2,1.0605812E0,-6.554671E-1,2.967422E-1,1.2899406E-1,9.09175E-1,4.7996603E-2,-1.2123436E0,5.7403026E-3,4.5501724E-2,-5.863746E-2,4.4035172E-1,6.0561087E-2,1.2653932E-2,1.086387E0,4.9700484E-1,-4.411591E-1,5.9752005E-1,-6.11115E-1,9.703005E-1,-6.0103804E-2,1.0758191E0,1.0929393E0,-8.0216116E-1,-1.2859741E-1,7.80659E-1,1.0387462E0,-2.2894526E-1,1.0243698E0,-8.285516E-1,-1.22487E0,1.1833407E-1,-3.4606624E-2,5.2034803E-2,5.7268705E-2,-3.131946E-2,-3.342798E-2,3.2092925E-2,-5.622082E-2,4.702525E-3,-4.026479E-2,3.6487397E-2,4.0594365E-2,-6.026882E-2,6.116122E-2,9.89864E-4,5.5428434E-2,7.73447E-3,6.386311E-2,-1.3164043E-2,-6.060306E-2,-2.2423526E-2,-5.133603E-2,1.2133503E-2,5.2192356E-2,-1.5147878E-3,-2.963239E-2,6.1355937E-2,5.442177E-2,-2.7899733E-2,-2.0680403E-2,5.823716E-2,-7.3869556E-2,5.3487953E-2,-6.276689E-2,-3.150931E-2,-4.6084963E-2,8.995608E-2],"categories":[],"categories_nodes":[],"categories_segments":[],"categories_sizes":[],"default_left":[0,0,0,0,0,0,0,0,0,0,0,0,0,0,0,0,0,0,0,0,0,0,0,0,0,0,0,0,0,0,0,0,0,0,0,0,0,0,0,0,0,0,0,0,0,0,0,0,0,0,0,0,0,0,0,0,0,0,0,0,0,0,0,0,0,0,0,0,0,0,0,0,0,0,0,0,0,0,0,0,0,0,0,0,0],"id":17,"left_children":[1,3,5,7,9,11,13,15,17,19,21,23,25,27,29,31,33,35,37,39,41,43,45,-1,47,-1,-1,-1,49,-1,-1,51,53,55,57,59,61,-1,63,65,67,69,71,73,75,77,79,81,83,-1,-1,-1,-1,-1,-1,-1,-1,-1,-1,-1,-1,-1,-1,-1,-1,-1,-1,-1,-1,-1,-1,-1,-1,-1,-1,-1,-1,-1,-1,-1,-1,-1,-1,-1,-1],"loss_changes":[6.6852454E2,2.1761156E2,1.7493622E1,5.2071747E1,1.0308237E2,1.162323E1,1.5417367E1,5.2696777E1,2.2492462E1,8.717266E1,3.1812073E1,8.985962E0,5.687444E-1,7.5973988E0,6.54335E-1,2.073207E1,5.7188873E1,1.2748799E1,1.1908447E1,8.0591034E1,2.8814531E1,3.7992706E1,2.0154854E1,0E0,6.305725E0,0E0,0E0,0E0,3.666227E0,0E0,0E0,1.2694366E1,2.1966774E1,3.7257515E1,2.115586E1,1.2744797E1,1.9101768E0,0E0,9.070007E0,6.4562016E0,4.1111313E1,2.529235E1,1.3990215E1,1.08431015E1,3.7030594E1,1.882956E1,9.646568E0,5.8447876E0,9.27768E0,0E0,0E0,0E0,0E0,0E0,0E0,0E0,0E0,0E0,0E0,0E0,0E0,0E0,0E0,0E0,0E0,0E0,0E0,0E0,0E0,0E0,0E0,0E0,0E0,0E0,0E0,0E0,0E0,0E0,0E0,0E0,0E0,0E0,0E0,0E0,0E0],"parents":[2147483647,0,0,1,1,2,2,3,3,4,4,5,5,6,6,7,7,8,8,9,9,10,10,11,11,12,12,13,13,14,14,15,15,16,16,17,17,18,18,19,19,20,20,21,21,22,22,24,24,28,28,31,31,32,32,33,33,34,34,35,35,36,36,38,38,39,39,40,40,41,41,42,42,43,43,44,44,45,45,46,46,47,47,48,48],"right_children":[2,4,6,8,10,12,14,16,18,20,22,24,26,28,30,32,34,36,38,40,42,44,46,-1,48,-1,-1,-1,50,-1,-1,52,54,56,58,60,62,-1,64,66,68,70,72,74,76,78,80,82,84,-1,-1,-1,-1,-1,-1,-1,-1,-1,-1,-1,-1,-1,-1,-1,-1,-1,-1,-1,-1,-1,-1,-1,-1,-1,-1,-1,-1,-1,-1,-1,-1,-1,-1,-1,-1],"split_conditions":[1E0,1E0,1E0,1E0,5E0,1E0,2E0,4E0,1E0,1E0,4E0,1E0,3E0,4E0,1E0,1E0,2E0,1E0,2E0,3E0,3E0,1E0,1E0,4.7996603E-2,1E0,5.7403026E-3,4.5501724E-2,-5.863746E-2,1E0,6.0561087E-2,1.2653932E-2,1E0,3E0,1E0,3E0,1E0,3E0,-6.0103804E-2,1E0,1E0,2E0,1E0,1E0,1E0,1E0,1E0,2E0,1E0,1E0,-3.4606624E-2,5.2034803E-2,5.7268705E-2,-3.131946E-2,-3.342798E-2,3.2092925E-2,-5.622082E-2,4.702525E-3,-4.026479E-2,3.6487397E-2,4.0594365E-2,-6.026882E-2,6.116122E-2,9.89864E-4,5.5428434E-2,7.73447E-3,6.386311E-2,-1.3164043E-2,-6.060306E-2,-2.2423526E-2,-5.133603E-2,1.2133503E-2,5.2192356E-2,-1.5147878E-3,-2.963239E-2,6.1355937E-2,5.442177E-2,-2.7899733E-2,-2.0680403E-2,5.823716E-2,-7.3869556E-2,5.3487953E-2,-6.276689E-2,-3.150931E-2,-4.6084963E-2,8.995608E-2],"split_indices":[604,717,718,516,866,198,112,545,380,516,29,434,0,359,280,417,99,228,707,545,624,793,65,0,886,0,0,0,62,0,0,44,161,62,29,793,16,0,65,246,99,773,777,860,573,713,485,487,18,0,0,0,0,0,0,0,0,0,0,0,0,0,0,0,0,0,0,0,0,0,0,0,0,0,0,0,0,0,0,0,0,0,0,0,0],"split_type":[0,0,0,0,0,0,0,0,0,0,0,0,0,0,0,0,0,0,0,0,0,0,0,0,0,0,0,0,0,0,0,0,0,0,0,0,0,0,0,0,0,0,0,0,0,0,0,0,0,0,0,0,0,0,0,0,0,0,0,0,0,0,0,0,0,0,0,0,0,0,0,0,0,0,0,0,0,0,0,0,0,0,0,0,0],"sum_hessian":[1.8328865E3,1.4401261E3,3.9276044E2,7.814337E2,6.586924E2,3.731236E2,1.9636839E1,4.5459146E2,3.2684222E2,4.4830518E2,2.103872E2,3.6982898E2,3.294634E0,1.3697303E1,5.9395356E0,2.4411179E2,2.1047968E2,1.996039E1,3.0688184E2,3.0980032E2,1.3850484E2,1.14942E2,9.5445206E1,1.2232308E0,3.6860574E2,2.0941281E0,1.200506E0,1.0364294E1,3.3330085E0,4.3910365E0,1.5484991E0,1.17546486E2,1.265653E2,1.00594765E2,1.0988492E2,1.2913997E1,7.046394E0,1.5318598E0,3.0534998E2,2.3481411E1,2.8631894E2,7.410466E1,6.440017E1,3.191743E1,8.3024574E1,8.989644E1,5.548772E0,3.6524698E2,3.358755E0,1.1017619E0,2.2312467E0,1.13953285E2,3.5932045E0,1.3590883E1,1.1297442E2,4.3702526E1,5.689224E1,9.026961E0,1.00857956E2,3.6964247E0,9.217571E0,5.338835E0,1.7075591E0,2.9466992E2,1.0680076E1,2.072316E1,2.7582524E0,1.3149712E2,1.5482181E2,2.115755E1,5.2947113E1,4.840393E1,1.599624E1,3.0817652E0,2.8835667E1,1.613175E1,6.689282E1,7.8219824E0,8.2074455E1,4.3005757E0,1.2481961E0,3.4638928E2,1.885771E1,2.353864E0,1.0048912E0],"tree_param":{"num_deleted":"0","num_feature":"954","num_nodes":"85","size_leaf_vector":"1"}},{"base_weights":[2.0619107E-2,-1.0303192E0,3.4816033E-1,5.9878297E-2,-1.0599777E0,6.912439E-1,-5.9963338E-2,-1.16882E0,-5.7238144E-1,9.442385E-1,4.2916822E-1,-5.6206334E-1,2.590706E-1,4.6875995E-2,-1.1788385E0,-1.0428114E0,-2.0341744E-1,1.058608E0,4.658479E-1,1.4132914E-1,1.0374552E0,9.2148864E-1,-7.338762E-1,-9.5201954E-2,7.563466E-1,-1.1976715E0,-1.687104E-2,-1.2180167E0,3.903627E-2,-7.542579E-1,4.4354317E-1,5.269085E-1,1.1160837E0,8.6158943E-1,-2.7095988E-1,6.141322E-1,-2.3729573E-1,1.1006219E0,-6.974021E-1,1.1067398E0,-5.5568207E-2,4.6900797E-1,-8.886156E-1,-1.0831027E0,2.1805228E-1,9.552232E-1,-2.334008E-1,-6.0367294E-2,3.3560485E-2,4.9467146E-2,-4.8747133E-2,-9.353884E-3,-7.1216755E-2,5.405711E-2,-5.5804636E-2,3.7821244E-2,-5.6777816E-2,4.7196493E-2,-2.5656486E-2,5.775361E-2,3.5750587E-2,4.8433438E-2,-7.205729E-2,-7.705775E-2,1.4840295E-2,5.9339978E-2,2.0057915E-2,-3.0990094E-2,2.3874288E-2,6.098205E-2,2.1260975E-2,-7.144695E-2,4.290967E-2,-4.9956724E-2,6.346042E-2,-2.8557528E-2,4.439919E-2,-5.3988653E-3,-5.629868E-2,-6.2778786E-2,2.9371327E-2,2.853233E-2,-2.2841727E-2,5.3137142E-2,-2.9344007E-3,-7.87392E-2,1.7239911E-2],"categories":[],"categories_nodes":[],"categories_segments":[],"categories_sizes":[],"default_left":[0,0,0,0,0,0,0,0,0,0,0,0,0,0,0,0,0,0,0,0,0,0,0,0,0,0,0,0,0,0,0,0,0,0,0,0,0,0,0,0,0,0,0,0,0,0,0,0,0,0,0,0,0,0,0,0,0,0,0,0,0,0,0,0,0,0,0,0,0,0,0,0,0,0,0,0,0,0,0,0,0,0,0,0,0,0,0],"id":18,"left_children":[1,3,5,-1,7,9,11,13,15,17,19,21,23,-1,25,27,29,31,33,35,37,39,41,43,45,47,49,51,-1,53,55,57,59,61,63,65,67,69,71,73,-1,75,77,79,81,83,85,-1,-1,-1,-1,-1,-1,-1,-1,-1,-1,-1,-1,-1,-1,-1,-1,-1,-1,-1,-1,-1,-1,-1,-1,-1,-1,-1,-1,-1,-1,-1,-1,-1,-1,-1,-1,-1,-1,-1,-1],"loss_changes":[6.2947375E2,2.9980225E1,1.9524533E2,0E0,2.2116394E1,4.981891E1,1.0228451E2,8.491577E0,1.3727106E1,2.0548859E1,6.531882E1,6.3902657E1,6.8879715E1,0E0,7.6130676E0,1.2151714E1,1.6816849E1,8.873169E0,2.239096E1,4.5787148E1,1.3911224E1,1.1092407E1,4.1898727E1,7.109409E1,3.2229362E1,7.016144E0,7.3056107E0,6.61985E0,0E0,1.8042654E1,1.1678686E1,1.4405136E1,3.5290527E0,1.3644924E1,2.0155191E1,1.3385914E1,3.9202324E1,8.815308E0,6.7179003E0,9.651413E0,0E0,1.1862346E1,3.6529984E1,1.6668434E1,4.1827168E1,1.4844101E1,2.2267044E1,0E0,0E0,0E0,0E0,0E0,0E0,0E0,0E0,0E0,0E0,0E0,0E0,0E0,0E0,0E0,0E0,0E0,0E0,0E0,0E0,0E0,0E0,0E0,0E0,0E0,0E0,0E0,0E0,0E0,0E0,0E0,0E0,0E0,0E0,0E0,0E0,0E0,0E0,0E0,0E0],"parents":[2147483647,0,0,1,1,2,2,4,4,5,5,6,6,7,7,8,8,9,9,10,10,11,11,12,12,14,14,15,15,16,16,17,17,18,18,19,19,20,20,21,21,22,22,23,23,24,24,25,25,26,26,27,27,29,29,30,30,31,31,32,32,33,33,34,34,35,35,36,36,37,37,38,38,39,39,41,41,42,42,43,43,44,44,45,45,46,46],"right_children":[2,4,6,-1,8,10,12,14,16,18,20,22,24,-1,26,28,30,32,34,36,38,40,42,44,46,48,50,52,-1,54,56,58,60,62,64,66,68,70,72,74,-1,76,78,80,82,84,86,-1,-1,-1,-1,-1,-1,-1,-1,-1,-1,-1,-1,-1,-1,-1,-1,-1,-1,-1,-1,-1,-1,-1,-1,-1,-1,-1,-1,-1,-1,-1,-1,-1,-1,-1,-1,-1,-1,-1,-1],"split_conditions":[2E0,0E0,1E0,5.9878297E-2,1E0,4E0,2E0,1E0,1E0,1E0,1E0,3E0,1E0,4.6875995E-2,1E0,1E0,1E0,1E0,1E0,1E0,1E0,1E0,1E0,1E0,5E0,1E0,4E0,2E0,3.903627E-2,1E0,1E0,3E0,1E0,1E0,1E0,1E0,2E0,1E0,1E0,2E0,-5.5568207E-2,1E0,1E0,1E0,1E0,1E0,1E0,-6.0367294E-2,3.3560485E-2,4.9467146E-2,-4.8747133E-2,-9.353884E-3,-7.1216755E-2,5.405711E-2,-5.5804636E-2,3.7821244E-2,-5.6777816E-2,4.7196493E-2,-2.5656486E-2,5.775361E-2,3.5750587E-2,4.8433438E-2,-7.205729E-2,-7.705775E-2,1.4840295E-2,5.9339978E-2,2.0057915E-2,-3.0990094E-2,2.3874288E-2,6.098205E-2,2.1260975E-2,-7.144695E-2,4.290967E-2,-4.9956724E-2,6.346042E-2,-2.8557528E-2,4.439919E-2,-5.3988653E-3,-5.629868E-2,-6.2778786E-2,2.9371327E-2,2.853233E-2,-2.2841727E-2,5.3137142E-2,-2.9344007E-3,-7.87392E-2,1.7239911E-2],"split_indices":[112,112,717,0,603,545,99,434,368,706,718,500,859,0,342,174,178,649,97,525,584,709,793,811,128,50,421,206,0,304,444,379,399,436,367,220,649,566,92,592,0,942,417,930,685,468,549,0,0,0,0,0,0,0,0,0,0,0,0,0,0,0,0,0,0,0,0,0,0,0,0,0,0,0,0,0,0,0,0,0,0,0,0,0,0,0,0],"split_type":[0,0,0,0,0,0,0,0,0,0,0,0,0,0,0,0,0,0,0,0,0,0,0,0,0,0,0,0,0,0,0,0,0,0,0,0,0,0,0,0,0,0,0,0,0,0,0,0,0,0,0,0,0,0,0,0,0,0,0,0,0,0,0,0,0,0,0,0,0,0,0,0,0,0,0,0,0,0,0,0,0,0,0,0,0,0,0],"sum_hessian":[1.8266241E3,4.3351526E2,1.3931089E3,5.177962E0,4.283373E2,7.564858E2,6.3662317E2,3.490291E2,7.9308205E1,3.8358722E2,3.7289856E2,2.470503E2,3.8957288E2,1.2139865E0,3.4781512E2,3.4057938E1,4.5250267E1,3.0859747E2,7.4989746E1,2.5395865E2,1.1893991E2,2.5188862E1,2.2186142E2,2.2796976E2,1.6160312E2,3.4223743E2,5.57769E0,3.1375446E1,2.6824923E0,2.4351158E1,2.089911E1,3.1096369E1,2.775011E2,4.8676243E1,2.6313503E1,1.1265728E2,1.4130136E2,1.1511415E2,3.8257596E0,2.350267E1,1.6861928E0,2.5055857E1,1.9680557E2,5.4292255E1,1.7367749E2,1.3459328E2,2.7009851E1,3.4082712E2,1.4103123E0,2.7045736E0,2.8731165E0,5.5499578E0,2.5825487E1,3.682714E0,2.0668444E1,1.7877794E1,3.0213168E0,2.2262316E1,8.834053E0,2.5120166E2,2.6299446E1,4.706693E1,1.6093158E0,7.5989194E0,1.8714582E1,2.929993E1,8.3357346E1,9.213134E1,4.917003E1,9.718285E1,1.7931297E1,2.6574726E0,1.168287E0,1.3145186E0,2.218815E1,7.0902476E0,1.796561E1,4.6226803E1,1.5057877E2,4.9436596E1,4.8556604E0,1.1417912E2,5.9498367E1,1.2164531E2,1.29479685E1,7.6164937E0,1.9393358E1],"tree_param":{"num_deleted":"0","num_feature":"954","num_nodes":"87","size_leaf_vector":"1"}},{"base_weights":[-8.455953E-3,-1.0519574E0,3.1459412E-1,5.860414E-2,-1.0821882E0,7.256323E-1,-4.5570754E-3,-1.1749136E0,-6.607157E-1,1.0829781E0,5.2152336E-1,-1.8791816E-1,1.0027224E0,-6.1162835E-1,-1.2282349E0,-4.3331195E-2,-1.0027188E0,1.176825E0,5.967708E-1,2.102496E-1,9.68505E-1,-3.5446993E-1,8.7139255E-1,1.0688628E0,-7.497532E-1,-8.5351306E-1,7.517736E-2,-6.2174406E-2,7.819579E-2,4.4783634E-1,-6.702241E-2,-7.07865E-2,-5.1375574E-1,1.2008063E0,-2.6577178E-2,8.3004427E-1,-1.091855E0,8.54034E-1,-2.2346295E-2,3.28874E-1,1.0888866E0,-8.089654E-1,6.3247466E-3,4.554463E-1,1.2078493E0,1.1790402E0,4.114238E-1,-7.391727E-2,4.2016756E-2,-5.3962555E-2,4.677869E-2,-4.68731E-2,8.863178E-2,-4.2997923E-2,5.709749E-2,-4.915202E-2,3.372019E-2,6.078301E-2,-1.3251911E-2,4.8364878E-2,-6.339E-2,-8.553695E-2,1.9189311E-2,4.7835503E-2,-7.3154785E-2,-3.598919E-2,1.723636E-2,3.514454E-2,-8.503969E-2,5.63744E-2,1.0804363E-2,5.420528E-3,-5.499815E-2,1.46484645E-2,-3.1142324E-2,3.763186E-2,-5.8237996E-2,6.305851E-2,-9.831923E-3,6.1166774E-2,4.1649383E-3,-4.5976777E-2,4.9595844E-2],"categories":[],"categories_nodes":[],"categories_segments":[],"categories_sizes":[],"default_left":[0,0,0,0,0,0,0,0,0,0,0,0,0,0,0,0,0,0,0,0,0,0,0,0,0,0,0,0,0,0,0,0,0,0,0,0,0,0,0,0,0,0,0,0,0,0,0,0,0,0,0,0,0,0,0,0,0,0,0,0,0,0,0,0,0,0,0,0,0,0,0,0,0,0,0,0,0,0,0,0,0,0,0],"id":19,"left_children":[1,3,5,-1,7,9,11,13,15,17,19,21,23,25,27,29,31,33,35,37,39,41,43,45,47,49,-1,-1,51,53,-1,-1,55,57,-1,59,61,63,65,67,69,71,73,75,77,79,81,-1,-1,-1,-1,-1,-1,-1,-1,-1,-1,-1,-1,-1,-1,-1,-1,-1,-1,-1,-1,-1,-1,-1,-1,-1,-1,-1,-1,-1,-1,-1,-1,-1,-1,-1,-1],"loss_changes":[5.923072E2,2.919516E1,1.7601294E2,0E0,1.5259186E1,4.220862E1,1.398679E2,9.311493E0,1.6062126E1,8.983063E0,5.1996056E1,1.13337555E2,1.4319267E1,1.7125435E1,6.176483E0,1.8589664E1,9.176193E0,7.8853455E0,1.523319E1,3.332746E1,1.1479675E1,9.0901085E1,1.1671547E1,7.6852417E0,6.8370557E0,1.2489355E1,0E0,0E0,9.339994E0,2.0254179E1,0E0,0E0,1.4058915E1,4.1271057E0,0E0,1.05912895E1,5.0825872E0,1.5451408E1,4.233042E1,2.0768776E1,4.1009674E0,6.5606E1,5.6090885E1,2.0453531E1,3.8181381E0,4.5609436E0,1.460721E1,0E0,0E0,0E0,0E0,0E0,0E0,0E0,0E0,0E0,0E0,0E0,0E0,0E0,0E0,0E0,0E0,0E0,0E0,0E0,0E0,0E0,0E0,0E0,0E0,0E0,0E0,0E0,0E0,0E0,0E0,0E0,0E0,0E0,0E0,0E0,